/*This file is automatically generated from a Keras model*/

#ifdef HAVE_CONFIG_H
#include "config.h"
#endif

#include "mlp.h"

static const float layer0_weights[400] = {
   0.0492830313742, 0.0875213891268, -0.0274606756866, 0.0822005420923,
   -0.0346284769475, -0.0148262334988, 0.164070874453, 0.0352180749178,
   0.0624466538429, 0.0940164327621, -0.0159651655704, -0.00443147541955,
   0.161359876394, -0.117113217711, -0.00397391384467, -0.04343348369,
   -0.186739847064, 0.0711668506265, -0.22566382587, -0.140638694167,
   -0.149551555514, 0.0262562669814, -0.200625151396, -0.0995891094208,
   -0.542629480362, 0.394043445587, -0.09274879843, -0.0852819755673,
   0.106293044984, -0.240119114518, -0.155671536922, 0.0730368793011,
   -0.0868992209435, -0.0357321612537, 0.0250187274069, 0.232777312398,
   -0.228913202882, -0.266836613417, 0.462746798992, 0.0595725141466,
   0.00953161530197, 0.149066478014, -0.306148380041, 0.315171808004,
   0.0927895084023, 0.0705954581499, 0.0693749263883, -0.218153730035,
   -0.00881456304342, -0.232178986073, 0.0303424075246, 0.0923298597336,
   -0.179150253534, 0.0310487747192, 0.252846807241, -0.168926358223,
   -0.10596871376, -0.10751748085, -0.524014770985, 0.106825083494,
   0.147721737623, -0.50719833374, -0.21851567924, 0.417119324207,
   -0.0153502188623, 0.46786954999, 0.480587244034, -0.0148864304647,
   -0.0999757796526, -0.0835343822837, -0.0987632647157, -0.0803316608071,
   0.161802113056, 0.528491675854, -0.159779474139, 0.0399390943348,
   -0.24012799561, -0.0404449254274, -0.185016408563, -0.0908746272326,
   -0.182095170021, -0.0458457134664, -0.285128384829, 0.221269309521,
   0.204818233848, -0.0451819822192, 0.0461512543261, 0.110990785062,
   0.0526713803411, -0.401959002018, -0.095740377903, -0.0829709246755,
   -0.313166797161, 0.291128367186, -0.145441025496, 0.0767970830202,
   0.0285810753703, 0.473931401968, -0.0590868070722, 0.18560923636,
   -0.237014785409, -0.00377918523736, -0.303493708372, 0.0282113477588,
   0.309117645025, -0.577646136284, -0.13161291182, 0.0185056272894,
   -0.495116978884, -0.381444722414, -0.458409279585, -0.335167109966,
   -0.121627785265, 0.156963422894, 0.172229960561, 0.143271714449,
   0.266512811184, -0.0831058323383, -0.388071298599, 0.0248139724135,
   0.257188349962, 0.217465057969, 0.192417770624, -0.0125869913027,
   -0.170427262783, 0.364780128002, -0.0306724645197, 0.0765536576509,
   0.205575063825, 0.415245473385, -0.746515035629, 0.0163281168789,
   0.000786226475611, -0.0425568595529, -0.19693531096, -0.074564948678,
   -0.41557058692, -0.427395880222, 0.162305369973, -0.160338327289,
   -0.479006141424, -0.0982555523515, 0.0540410093963, 0.238528892398,
   0.256595343351, 0.0160498246551, 0.457707256079, 0.132083281875,
   0.216135367751, -0.0942541286349, 0.02144507505, 0.0713781267405,
   0.00126174988691, -0.200502619147, 0.274080783129, 0.0398127958179,
   -0.0397215560079, 0.0276496261358, 0.172331631184, 0.560135304928,
   -0.209019675851, 0.33827316761, -0.0104704480618, 0.0165181811899,
   0.236923694611, -0.0572434030473, -0.408306777477, -0.597667098045,
   0.445894449949, 0.544133782387, 0.102462537587, -0.0855524688959,
   -0.233105793595, -0.422521680593, -0.156237453222, 0.24989528954,
   -0.0313162580132, 0.20352332294, -0.167911365628, -0.117246866226,
   -0.303995668888, 0.0647743716836, -0.245977759361, 0.0703788325191,
   0.144058391452, -0.259583085775, 0.0779436677694, -0.012236379087,
   -0.0588721372187, -0.0657389312983, -0.126601874828, 0.244702145457,
   -0.198936223984, 0.152480170131, -0.173691183329, 0.183420717716,
   -0.131992220879, 0.331501364708, -0.175751671195, -0.156817689538,
   0.192351654172, -0.337514609098, -0.106725119054, -0.0846785977483,
   0.110469244421, -0.128288254142, 0.0916047170758, -0.135256066918,
   0.353014290333, 0.180754363537, -0.102308578789, 0.187235489488,
   -0.144631683826, -0.07427495718, 0.214154526591, -0.0877176821232,
   0.143038198352, -0.179861962795, -0.339437961578, 0.0865523889661,
   0.286534845829, 0.262054771185, -0.228262379766, 0.324625998735,
   0.452668398619, 0.00421108584851, 0.327431678772, 0.291866183281,
   -0.178121715784, -0.138571053743, -0.291783124208, -0.78657579422,
   -0.0494346953928, -0.230649590492, 0.173056989908, -0.0327356718481,
   0.0374162793159, -0.262009114027, -0.509725630283, -0.0319272242486,
   -0.142525196075, 0.220762774348, 0.140568673611, 0.197104856372,
   0.0541990213096, 0.139674782753, -0.0342119559646, -0.186653107405,
   -0.101547695696, 0.315165102482, -0.20803797245, -0.252963006496,
   -0.00374544016086, 0.116964444518, 0.0936921015382, -0.0416500866413,
   0.432758152485, -0.414077967405, 0.334099650383, 0.245846733451,
   -0.0218588467687, -0.32355967164, -0.0707801952958, -0.0103008765727,
   0.0908358171582, -0.337983042002, -0.130945786834, 0.195447355509,
   0.264437019825, -0.0889784246683, -0.0713869929314, -0.10301053524,
   -0.150883346796, 0.209373265505, 0.307604521513, -0.177636921406,
   -0.623466849327, -0.290902227163, -0.100389435887, -0.479034841061,
   0.155140548944, -0.0306600145996, -0.386960297823, 0.347205281258,
   0.248532161117, 0.0756949260831, -0.347326636314, 0.0517597012222,
   0.030086664483, -0.0994002819061, 0.634296119213, 0.222425639629,
   -0.200698241591, -0.139471769333, -0.908152222633, -1.08307671547,
   -0.172580599785, -0.483118414879, -0.193847462535, -0.233308583498,
   0.36324930191, -0.347736656666, 0.668361544609, 0.189551562071,
   0.179962843657, -0.0844656080008, 0.0616369172931, -0.301664710045,
   0.208913952112, -0.0771705284715, -0.194635853171, 0.187099739909,
   0.0341909639537, 0.0859335660934, -0.177570208907, -0.0310778468847,
   -0.0547450892627, 0.00760687328875, -0.0924192070961, -0.293341338634,
   1.94740569592, 0.697884261608, -1.87794554234, 2.29549670219,
   1.08495354652, -1.40047824383, -1.59528923035, 2.3286588192,
   1.05318892002, 2.01961898804, -2.44605994225, -2.34612703323,
   -1.047960639, 1.77096557617, -1.92529833317, 2.60234451294,
   0.496480762959, 0.0203859433532, -0.151031926274, 0.559365928173,
   0.103681504726, -0.70977461338, -0.136225014925, 0.229659214616,
   1.14446723461, 0.340935379267, -0.0934277102351, -0.82922154665,
   -0.0103047937155, 0.362543255091, -0.733434915543, 1.1896327734,
   -0.0363049395382, -0.0212440192699, 0.877468049526, 0.318690955639,
   -0.740522921085, 0.418875902891, -1.24472224712, 0.285642057657,
   -0.206885501742, 0.0458115786314, 0.424491792917, 0.250934332609,
   -0.274481445551, 0.158809289336, 0.413691133261, 0.518936276436,
   -1.16970980167, -0.0488751903176, 1.02724540234, -1.71184921265,
   0.915606021881, 1.58742547035, 1.64404058456, 0.544514358044,
   -0.442498147488, -1.4003919363, 2.05397486687, 2.41039776802,
   -0.0115155298263, -0.582232654095, 1.45259070396, -2.08711600304,
   -0.161096900702, 0.308890402317, 0.296737641096, -0.0207202266902,
   -0.116882912815, 0.819977104664, -0.405638635159, 0.227414056659,
   -0.546399116516, 0.0846924334764, -0.0188952293247, 1.36655187607,
   -1.26848506927, 0.326125532389, 0.173379391432, 0.316118329763
};

static const float layer0_bias[16] = {
   0.0478752180934, -0.130330532789, 0.0567058548331, 0.0367298834026,
   0.451919078827, -0.132114619017, 0.062658123672, 0.251301318407,
   -0.362646698952, 0.149322211742, -0.484930515289, 0.0115520181134,
   -0.099951736629, 0.135627105832, -0.324423104525, 0.0244370978326
};

static const float layer1_weights[576] = {
   0.126545727253, 0.489378660917, 0.20560015738, -0.337400645018,
   0.119687996805, -0.031981818378, 0.111435376108, 0.100952386856,
   0.212704449892, 0.150720790029, -0.0541909784079, -0.236422553658,
   0.520811855793, -0.00947282556444, -0.417180627584, 0.275322526693,
   0.188508763909, 0.0195616707206, 0.264751374722, -0.287256836891,
   0.175891488791, 0.0525397025049, -0.217975124717, 0.336045503616,
   0.0748518332839, -0.291193842888, 0.348811209202, 0.0829037874937,
   0.175770893693, -0.429756015539, 0.156973153353, -0.108822576702,
   -0.0583667345345, -0.245479121804, 0.0482833795249, -0.021861763671,
   -0.627749621868, -0.242119118571, -0.20461589098, 0.360284388065,
   -0.455045938492, -0.374981462955, 0.311871618032, -0.025549961254,
   -0.430039674044, 0.246926173568, 0.193276897073, -0.159207955003,
   -0.316728979349, -0.175545319915, -0.204288780689, 0.107442058623,
   -0.430743455887, -0.297565549612, -0.326185047626, 0.363224923611,
   0.117949202657, -0.125089466572, -0.55195826292, -0.31846255064,
   0.252528995275, -0.0455675534904, 0.222370490432, -0.100565515459,
   -0.00368676427752, 0.095694899559, 0.179813459516, -0.14728371799,
   -0.152904614806, -0.273942321539, -0.379436284304, 0.147751912475,
   0.527504324913, 0.287231743336, 0.640892982483, 0.682211220264,
   0.262693583965, -0.0231249947101, -0.11214607954, -0.420046329498,
   0.116410762072, 0.241006091237, 0.543060064316, 0.0206210445613,
   0.679736852646, -0.0317579135299, -0.191336408257, 0.394914925098,
   0.104835532606, 0.0421512387693, 0.208268538117, 0.21832421422,
   -0.319602102041, 0.339424550533, 0.500701785088, -0.0719483569264,
   -0.120107203722, 0.157202020288, 0.152152329683, -0.440739482641,
   -0.421599835157, 0.117092549801, -0.0145501401275, 0.304634064436,
   -0.5630428195, -0.0751677080989, -0.514655172825, 0.496182739735,
   -0.305389165878, -0.649449169636, 0.368519425392, -0.313115984201,
   -0.51537501812, -0.115000776947, -0.371195942163, -0.744568109512,
   -0.170364439487, -0.53000664711, -0.00310488650575, -0.799124240875,
   -0.105486318469, 0.380175739527, -0.0529728420079, 0.426442474127,
   -0.381984502077, 0.0242964588106, 0.112987950444, 0.228286698461,
   -0.244405314326, -0.278699427843, -0.314452558756, -0.462221175432,
   0.238473236561, 0.271419584751, 0.1763638556, -0.0828668251634,
   0.334152668715, -0.286302417517, 0.131283998489, -0.304927915335,
   0.201220944524, 0.00801129359752, 0.0330534651875, 0.0633287355304,
   -0.0347944833338, 0.226787179708, -0.687633693218, -0.0814359933138,
   -0.20049226284, 0.417454838753, -0.175686523318, -0.356747746468,
   0.319024473429, 0.781230449677, -0.194360792637, 0.0666246861219,
   0.105570241809, -0.0578237809241, -0.290688097477, -0.194920867682,
   0.213474467397, 0.00220721191727, 0.13708846271, -0.324612677097,
   0.323531270027, 0.824842095375, 0.299660027027, 0.0898201465607,
   0.176631659269, -0.137631252408, 0.187868624926, 0.449407875538,
   0.0380486547947, 0.196362420917, 0.252506881952, 0.0182736329734,
   0.0380243696272, -0.0954493507743, -0.0575432293117, -0.0717297047377,
   -0.206534251571, -0.0852662697434, 0.168689548969, -0.653150081635,
   -0.418612539768, -0.268927067518, -0.444699317217, -0.282129019499,
   -0.244495362043, 0.230152830482, 0.254770755768, -0.617563605309,
   -0.071487493813, 0.498829871416, 0.283956617117, -0.255148112774,
   0.194455549121, -0.697281181812, -0.399168789387, 0.787585616112,
   -0.290893346071, 0.336964994669, -0.421147465706, 0.274189293385,
   -0.263058543205, -0.487343281507, -0.371988356113, -0.147201791406,
   -0.330773115158, 0.0269244108349, 0.052489105612, 0.670892000198,
   0.011836132966, -0.359872758389, 0.00753989303485, -0.1018313393,
   0.757569432259, 0.919550597668, 0.761252939701, -0.200120911002,
   0.0589486062527, 0.683653950691, 0.168846815825, -0.962945997715,
   0.201474800706, -0.588853418827, -0.00994901265949, 0.628496289253,
   -0.188045829535, -0.00498016318306, 0.260634750128, -0.284255206585,
   0.0098543362692, 0.689418375492, 0.0607876293361, 0.0935083031654,
   0.36370792985, 0.194739863276, 0.0374161787331, -0.00693010119721,
   -0.261181116104, -0.108175441623, 0.180965557694, 0.206957295537,
   -0.32648563385, 0.00751612940803, 0.358349323273, -0.270122945309,
   -0.248546436429, -0.185392022133, -0.248273789883, -0.251270055771,
   0.0106005938724, -0.393413126469, 0.488176047802, -0.0531430318952,
   0.231980457902, 0.6319642663, 0.0696310773492, -0.142925962806,
   0.652515351772, 0.25599488616, 0.445874810219, 0.906002521515,
   0.0473695062101, -0.33039277792, 0.253091514111, -0.48262912035,
   0.278470486403, -0.06028521806, -0.302478522062, -0.0473825111985,
   -0.0791956558824, 0.456902205944, 0.444760024548, 0.0773927792907,
   0.0585011392832, -0.145315244794, -0.27138748765, 0.418068230152,
   0.0920961126685, -0.22924426198, 0.161610946059, 0.255327045918,
   -0.14570787549, -0.457868486643, 0.111761398613, -0.26911303401,
   0.0102320471779, -0.617436528206, 0.925800979137, -0.307640194893,
   -0.375065088272, -0.501560389996, -0.873185038567, -0.442787110806,
   0.0117557011545, -0.358244925737, -0.542090654373, 0.00521283736452,
   -0.10028077662, 0.12609487772, 0.202157631516, -0.046696882695,
   0.0064542144537, -0.155591711402, -0.269583463669, -0.34070700407,
   0.08368948102, 0.311323493719, 0.0268016308546, -0.468088299036,
   0.224369287491, -0.20096437633, -0.0755359753966, 0.327487468719,
   0.144704386592, -0.0497362799942, -0.402493298054, -0.343940079212,
   -0.180060833693, 0.139655008912, 0.105925135314, -0.446340829134,
   -0.0294418241829, 0.242899432778, 0.185167342424, 0.017744416371,
   -0.955780684948, 0.584349215031, 0.43529009819, -0.0592940934002,
   -0.194057822227, 0.0585125051439, -0.095665179193, 0.698429524899,
   -0.217765986919, -0.146764472127, -0.013709269464, -0.057539794594,
   -0.0200138334185, 0.115458615124, -0.258980154991, 0.265806794167,
   0.646370589733, -0.2512165308, 0.464278519154, -0.152171567082,
   0.383552879095, -0.0559115111828, -0.0352361500263, 0.0676129162312,
   0.333971053362, -0.0356477834284, -0.017469946295, -0.250708967447,
   0.241907909513, -0.151380419731, 0.310822725296, -0.204084649682,
   0.109136961401, 0.188419476151, -0.507360339165, -0.434106349945,
   0.153206601739, 0.354553431273, -0.017434027046, 0.0663126409054,
   -0.08625934273, -0.0569094084203, -0.845107614994, 0.360084533691,
   0.140873074532, -0.325938463211, 0.773722112179, -0.202790737152,
   0.204228118062, -0.128201395273, -0.0957510024309, -0.138493254781,
   -0.170300588012, 0.477749615908, 0.0604779012501, -0.0649510025978,
   0.0830359235406, -0.296003103256, 0.148981869221, -0.22447668016,
   -0.265946865082, 0.357094436884, -0.420434862375, 0.406827002764,
   -0.0948102995753, 0.466337859631, -0.182969361544, -0.411802172661,
   0.463289946318, -0.0750455781817, 0.170598775148, 0.0126109197736,
   0.159852966666, -0.284589111805, 0.258410811424, -0.356574296951,
   0.631101131439, 0.474602907896, -0.153172373772, 0.440940111876,
   0.138056367636, -0.200795605779, -0.363787293434, -0.342435449362,
   0.38069164753, -0.180788293481, -0.167427778244, 0.207849934697,
   0.0351380482316, 0.340240210295, 0.159664109349, -0.0321497097611,
   -0.159051716328, -0.157533347607, -0.744669556618, -0.0602588690817,
   -0.112151756883, -0.36896649003, -0.161907345057, 0.51144772768,
   -0.376103311777, 0.0329922586679, -0.0309252683073, 0.132296413183,
   0.182397261262, 0.0705767720938, 0.460788249969, -0.692469000816,
   0.302298665047, -0.370464146137, -0.745411992073, 0.0320355147123,
   -0.585171818733, -0.744246840477, 0.327056199312, -0.588043451309,
   -0.0521510839462, 0.103278301656, 0.518646597862, 0.383347392082,
   -0.173482969403, 0.288445264101, 0.137781068683, 0.33857780695,
   0.0312755443156, -0.119654737413, -0.246153011918, -0.222714439034,
   0.0214606393129, 0.471478283405, 0.0156945176423, 0.101112738252,
   -0.15110565722, 0.149592444301, 0.192218929529, -0.0139966597781,
   0.328514993191, 0.352610468864, 0.115381740034, -0.0219197217375,
   0.0909459665418, 0.531310856342, -0.113606363535, 0.123990833759,
   -0.704866409302, 0.164823427796, -0.497474700212, -0.0838002040982,
   0.506650567055, 0.201378822327, 0.349864423275, 0.146233722568,
   0.517945766449, 0.0779115334153, -0.133270964026, -0.170205563307,
   0.525877177715, -0.741301834583, -0.0692448839545, 0.0157217644155,
   -0.266883045435, 0.769545674324, 0.271110892296, 0.402025222778,
   0.235602304339, -0.501565694809, 0.107723385096, -0.0224402993917,
   0.234033942223, -0.173002675176, 0.277551561594, 0.256262391806,
   -0.197127640247, -0.0721781998873, 0.269812077284, -0.286983519793,
   0.70519298315, 0.562323212624, 0.148550003767, -0.830190360546,
   0.0940693616867, 0.401207268238, -0.581161916256, 0.370282351971,
   0.340341359377, 0.251709103584, -0.447034031153, 0.55810469389,
   -0.425238072872, 0.283841222525, 0.296433269978, 0.00227097701281,
   0.0726838409901, 0.228770881891, 0.138273537159, 0.0840511322021,
   0.131957963109, 0.594766795635, 0.110928721726, 0.0715620815754,
   -0.271012634039, 0.558445632458, 0.106208369136, -0.180116206408,
   0.00350506510586, 0.135954245925, -0.331819981337, 0.379404425621,
   0.0405504181981, 0.22818800807, -0.341021388769, -0.189767017961,
   -0.233930140734, 0.0440674647689, -0.747047662735, 0.0775215476751,
   -0.280538976192, 0.222846567631, -0.352886915207, 0.0258876588196,
   -0.780883848667, -0.272856622934, -0.622311353683, -0.800995588303,
   0.485918879509, 0.349365353584, 0.14718067646, -0.202337294817,
   -0.464320451021, -0.520050644875, -0.304843187332, -0.0748430863023,
   -0.067321613431, -0.185883522034, -0.536584913731, 0.133584797382,
   0.0245286580175, -0.168567433953, 0.423466175795, -0.213164195418,
   0.0774993821979, -0.0437285900116, 0.0644142106175, -0.3452052176,
   0.176547318697, -0.149122133851, -0.25020045042, 0.20763656497
};

static const float layer1_recur_weights[432] = {
   0.453817933798, -0.913295090199, 0.715234160423, -0.448646515608,
   -0.433507561684, 0.115291021764, -0.288646697998, -0.568594694138,
   0.0794487446547, -0.0613500587642, 0.38320350647, 0.597114443779,
   0.330868750811, -0.393267601728, -0.00465166429058, -0.296464920044,
   0.0269253347069, -0.289864301682, -0.320509493351, 0.136876285076,
   -0.136961624026, 0.211550071836, 0.270093739033, 0.0139686884359,
   0.202969357371, -0.500533521175, -0.0478756986558, 0.0769914984703,
   0.398333072662, -0.229502111673, 0.338553577662, 0.471592605114,
   0.223443835974, -0.0997715964913, 0.257886350155, 0.0848892703652,
   -0.334532618523, 1.18956208229, -0.0955091416836, -1.22173082829,
   0.241545110941, -0.533025681973, 0.279749333858, 0.958751857281,
   -0.209033831954, -0.859576284885, 0.44473940134, -0.616284251213,
   0.099224857986, 0.312562406063, 0.155033558607, 0.19076731801,
   -0.0761112049222, 0.0993800908327, -0.00208379281685, 0.158754199743,
   -0.3169939816, 0.0712504535913, 0.457776337862, 0.156067460775,
   0.0804069563746, 0.592859089375, 0.0747295543551, -0.137515708804,
   0.516225278378, -0.271379560232, -0.193885117769, -0.58163267374,
   0.322347640991, 0.239313289523, -0.152553841472, -0.442467391491,
   0.160203099251, 0.18910112977, 0.563894987106, -0.139241576195,
   0.0185315664858, -0.0729966461658, 0.475114703178, -0.0214462056756,
   -0.179400682449, -0.349380284548, 0.867300510406, -0.3019066751,
   0.693843960762, 0.0870527029037, 0.331215560436, -0.112929694355,
   0.560472249985, -0.068270213902, 0.215248942375, 0.145295768976,
   0.0668251886964, -0.129841923714, 0.214446440339, 0.496741980314,
   0.365671277046, 0.554524719715, 0.613509535789, -0.195519909263,
   0.288263350725, -0.447706222534, -0.0288066435605, -0.574445784092,
   0.704571008682, -0.232143178582, -0.21136277914, 0.405289262533,
   0.745753347874, 0.38382050395, 0.446532398462, 0.198281466961,
   -0.0422380529344, 0.638072609901, 0.509776294231, -0.231019645929,
   0.472963660955, -0.0369500480592, -0.145433247089, 0.145075261593,
   -0.102873496711, -0.218617379665, 0.333970725536, 0.222455695271,
   0.506762385368, 0.258208334446, 0.0892646089196, 0.00680666230619,
   0.457631468773, 0.0329547151923, 0.388759434223, 0.0570941641927,
   -0.364220201969, -0.0420257002115, -0.439704298973, 0.690635383129,
   -0.623276352882, 0.328571170568, 0.682634174824, -0.174371108413,
   -0.394939899445, -0.435146510601, 0.277462810278, -0.355728685856,
   0.406292617321, 0.541056096554, 0.22987100482, -0.778896868229,
   0.495735645294, -0.00221906392835, 0.0360057912767, 0.156283080578,
   -0.04404912889, -0.58629244566, 0.329401344061, 0.309030771255,
   0.436455309391, -0.449758797884, 0.448473721743, -0.29513335228,
   0.164860919118, -0.138028666377, 0.173187151551, -0.229946255684,
   0.0365437567234, 0.188199415803, 0.111146993935, -0.144253924489,
   0.650238275528, 0.419692128897, 0.27288800478, 0.416543334723,
   0.385423839092, -0.602080345154, -0.279216915369, 0.124474033713,
   0.851460039616, 0.500015079975, 0.254234105349, -0.148375838995,
   -0.346286088228, 0.136249110103, -0.276221305132, -0.242844507098,
   -0.0682318434119, -0.504932165146, -0.423752009869, 0.594648897648,
   -0.101654022932, 0.159113064408, -0.0303151980042, 0.322872340679,
   -0.133900180459, 0.104276128113, 0.258295714855, 0.534959971905,
   -0.0433965623379, 0.304473668337, 0.139825746417, -0.471600502729,
   0.226975142956, 0.144579038024, -0.662193000317, -0.252872854471,
   -0.369370698929, -0.194607049227, -0.179380133748, 0.051382355392,
   -0.459773480892, 0.984502613544, 0.128075301647, 0.709041893482,
   -0.454975038767, -0.0202219113708, -0.237986028194, 0.069884955883,
   0.685953259468, 0.246874153614, 0.362908482552, 0.855281949043,
   -0.145994767547, 0.642527222633, -0.298282951117, 0.250947952271,
   0.47536996007, 0.615434527397, -0.232205674052, 0.378403902054,
   -0.19637298584, -0.718023657799, 0.107008054852, 0.115821227431,
   0.211672842503, 0.254806786776, 0.0106544168666, -0.0930365100503,
   0.0227141678333, 0.00543391518295, -0.00512297637761, 0.14384688437,
   0.0760531648993, 0.0779081210494, -0.198400750756, 0.11454679817,
   -0.147674173117, 0.425093919039, 0.780208170414, 0.244778677821,
   -0.429749280214, -0.892870306969, -0.454826146364, -0.11349901557,
   -0.589416563511, -0.457498311996, -1.31879138947, 0.491958618164,
   -0.647730350494, -0.672980070114, -0.308283656836, -0.31407648325,
   -0.164476796985, 0.696876585484, -0.652125597, 0.351515084505,
   -0.532463490963, -0.43561565876, -0.151580452919, 0.0727160647511,
   -0.314539015293, -0.530981838703, 0.107653722167, 0.0840263962746,
   -0.198549970984, -0.0272239912301, -0.447712182999, -0.238211676478,
   -0.0678503513336, -0.052277803421, -0.31537091732, -0.476710677147,
   -0.260134458542, 0.117527343333, 0.14289149642, 0.554044246674,
   -0.0803154781461, 0.0109352162108, 0.159217715263, 0.334433048964,
   -0.361817479134, 0.0695988088846, 0.18166513741, -2.08830094337,
   0.105212114751, -0.339641332626, 0.0998394861817, 0.453417539597,
   -0.0381287075579, -0.429228156805, 0.0152307320386, 0.327757894993,
   0.451498478651, -0.0908479690552, 0.22390525043, -0.0509603321552,
   -0.109388694167, -0.065611794591, 0.0238713733852, 0.0484567694366,
   0.176681384444, -0.166229143739, 0.0268257390708, 0.0702822655439,
   0.0396417304873, 0.147927746177, -0.208815827966, 0.22841656208,
   0.494283437729, -0.322941482067, -0.225274085999, -0.148330450058,
   0.905186295509, 0.34601739049, 0.330812007189, -0.236402973533,
   -0.347195088863, -1.0618686676, -0.31448957324, -0.657682180405,
   0.0229228120297, -0.661912620068, 0.160381138325, 0.210568368435,
   -0.462575346231, 1.07737743855, 0.165411189198, -0.11031268537,
   0.3219845891, 0.632003128529, -0.450699716806, -0.00416098954156,
   0.26093134284, -0.382277846336, 0.158651173115, 0.0635110959411,
   0.235649526119, 0.394723951817, 0.078297406435, 0.265928179026,
   0.181502953172, 0.0218544024974, -0.00678952177987, -0.579005300999,
   -0.164418384433, -0.073371835053, -0.389690876007, 0.160861864686,
   0.0375601425767, 0.972296953201, -0.823792636395, 0.967430353165,
   0.593772768974, -0.256513923407, 0.150642231107, 0.11313162744,
   0.202492028475, 0.777387499809, 0.342493623495, -0.00707898102701,
   0.341617017984, -0.211231037974, -0.527782797813, 0.243796557188,
   -0.4378439188, -0.103638805449, 0.0881250202656, -0.304964005947,
   0.504707872868, 0.839983582497, 0.115319781005, 0.00207069190219,
   0.665560305119, 0.0468591451645, -0.055883962661, -0.114194214344,
   0.0903312340379, 0.0478642806411, 0.0930792689323, 0.474531710148,
   0.185977756977, 0.0796310305595, 0.0117140244693, 0.00991821940988,
   0.228666394949, -0.552700221539, 1.13292181492, -0.952404916286,
   -0.451706618071, -0.341313421726, -0.861748754978, -0.49120593071,
   0.302226215601, -0.400867789984, -0.152873679996, 0.509928643703,
   -0.768835425377, 0.285780757666, 0.764620482922, -0.135669514537,
   0.623340427876, 0.313678234816, -0.566914618015, 0.180985927582,
   0.0590444877744, -0.315847456455, -0.0459962524474, -0.0440850220621,
   -0.135642021894, -0.169667899609, -0.0480358451605, 0.0815192088485,
   0.265481501818, -0.148799821734, -0.0390545912087, -0.512072741985,
   -0.253065675497, -0.163255572319, -0.259273052216, -0.206968054175,
   -0.584223687649, 0.421330630779, -0.333655804396, 0.752589285374
};

static const float layer1_bias[36] = {
   0.367746293545, 0.144548967481, 0.147554174066, 0.394467353821,
   0.473352521658, 0.780040562153, 0.575279831886, -0.0127180684358,
   0.497663706541, 0.761755108833, 0.280936926603, 0.518262028694,
   -0.105387412012, 0.114549949765, 0.0786481648684, 0.55116212368,
   0.714537322521, 0.326683133841, 0.360154241323, 0.00530549045652,
   0.329881161451, 0.275798767805, 0.545142173767, 0.313199669123,
   0.251808792353, 0.0487832389772, 0.107869684696, 0.128066673875,
   0.0704784095287, -0.140011027455, 0.091437831521, -0.0376527532935,
   0.179041624069, 0.0222097970545, 0.0851793512702, -0.0604856908321
};

static const float layer2_weights[24] = {
   -0.077111132443, 1.57838368416, -0.279137343168, 1.72323715687,
   0.135323107243, 1.28035795689, 1.23135948181, 0.322235494852,
   -0.828788459301, 1.11463654041, -0.124836184084, -0.938024163246,
   2.02070689201, -0.348352968693, -0.822297632694, -0.929968893528,
   -0.341948896646, 0.954222977161, -2.4360575676, 0.448728322983,
   1.28942286968, 0.150942996144, -1.17604887486, 0.192172393203
};

static const float layer2_bias[2] = {
   -0.347115397453, 0.412984520197
};

const DenseLayer layer0 = {
   layer0_bias,
   layer0_weights,
   25, 16, 0
};

const GRULayer layer1 = {
   layer1_bias,
   layer1_weights,
   layer1_recur_weights,
   16, 12
};

const DenseLayer layer2 = {
   layer2_bias,
   layer2_weights,
   12, 2, 1
};

