#include "mlp.h"

/* RMS error was 0.213119, seed was 1322073261 */

static const float weights[271] = {

/* hidden layer */
0.693025, 0.12016, -0.2263, 0.254033, -0.128153, 
0.14498, -0.139098, 0.160911, -0.101749, -0.0495703, 
-0.064263, 0.0583359, 0.00431816, 0.137356, 0.199892, 
0.0859346, -0.159615, -0.109472, -0.483732, -0.0564564, 
-0.1935, 1.94157, 0.975237, -1.99915, -0.566324, 
0.457616, 1.05455, -0.0896938, 0.119609, -0.135437, 
0.0485118, -0.168008, 0.099568, -0.164749, 0.0837494, 
0.043713, -0.00298809, 0.0312529, 0.0128313, 0.0217679, 
-0.0185004, 0.0452, -0.0287335, -0.0872755, 0.145857, 
-0.534325, 0.255553, 1.68378, -0.212433, -0.416954, 
0.558858, 0.295516, 2.43878, 0.105586, 0.0929094, 
0.0461483, 0.0715373, 0.054567, 0.0499543, -0.0589255, 
0.0518142, 0.143022, 0.0927234, 0.0891022, -0.0743216, 
-0.0497012, -0.150656, 0.0945407, -0.438528, -0.272849, 
-0.613949, -0.0907026, -0.0846951, -3.10146, -1.64289, 
-0.538651, -1.76321, -2.90649, -0.738564, 0.103786, 
0.0706484, 0.194004, 0.0256865, -0.00755591, -0.0148712, 
0.0249828, -0.0288777, 0.0913917, 0.0510661, 0.117025, 
-0.00722344, -0.175031, 0.283402, -0.312663, 0.19557, 
0.0678725, -0.0488421, 0.296382, 0.123097, 6.72257, 
0.296421, 0.219984, -12.444, -1.80343, 4.56011, 
0.0481676, 0.027474, 0.0752634, 0.0243683, -0.0166126, 
0.00484121, 0.00782469, -0.0210589, -0.000731938, -0.0244603, 
-0.0222773, -0.0433534, -0.250382, -0.118675, -1.05746, 
-0.217, -0.0425872, -0.231335, -0.500574, 0.477752, 
0.247352, 0.611455, 0.956451, 4.80434, 0.670325, 
-0.394506, 0.0344075, 0.148722, 0.136525, 0.110126, 
-0.0668243, 0.012418, -0.0307898, 0.0666452, -0.0171564, 
0.136063, 0.0268092, -0.0725383, 0.0749385, 0.0845712, 
0.48549, 0.0295497, 0.276011, 0.479614, 0.640422, 
-0.245035, -0.751258, -1.0434, -3.62517, -2.84518, 
3.95485, -1.64489, 0.209162, -0.132563, 0.252206, 
-0.135669, 0.0428919, -0.0799343, 0.0932631, -0.0781831, 
0.189111, -0.0977977, 0.110201, 0.0235682, 0.0302204, 
-0.240156, -0.289576, 0.136261, 0.363298, 0.484825, 
0.389438, 0.193011, -0.566411, -0.000798943, 1.53221, 
-2.99065, -0.226329, 2.19154, -0.00811221, -0.0912965, 
-0.0275327, -0.0861904, 0.00839052, 0.0904659, -0.00893919, 
0.0360984, -0.015071, -0.0647292, -0.0734295, -0.0261419, 
-0.402868, 0.176918, -0.212574, -0.00624752, -0.0633636, 
0.406343, -0.274925, 0.432039, 4.29364, 0.231697, 
-1.06323, 2.08855, -30.2379, 0.0637952, 0.120849, 
-0.0639096, 0.13732, -0.180987, 0.191846, 0.368452, 
0.209571, 0.164176, -0.0378771, -0.11027, 0.0156665, 
0.0207418, 0.0259591, -0.0239737, -0.00352567, -0.0545034, 
0.0656311, -0.0817674, 0.521953, 0.241775, 7.41463, 
0.765259, 0.863685, -2.13211, 0.310299, 2.10354, 
0.0360669, -0.171618, -0.148112, -0.279292, 0.709935, 
0.845869, 0.4868, 0.224496, 0.343149, 0.202645, 
-0.091977, 0.0201541, 0.077029, 0.0259409, 0.0167369, 
0.0780503, 0.118852, -0.18355, -0.158253, 0.145728, 
5.04716, -0.126459, 1.02251, 1.57638, 0.0646518, 

/* output layer */
-3.6362, 1.96839, 1.93382, -2.10686, 2.27415, 
0.599088, -0.615374, -2.02317, 0.383689, 0.360266, 
0.532961, };

static const int topo[3] = {25, 10, 1};

const MLP net = {
	3,
	topo,
	weights
};

