#include "mlp.h"

/* RMS error was 0.082498, seed was 1321973245 */

static const float weights[291] = {

/* hidden layer */
1.98961, -0.0130782, 0.00232344, 0.034999, -0.111098, 
-0.0306255, 5.99275e-05, 0.0279719, -0.0122697, -0.0743631, 
-0.0265766, -0.0475938, -0.0358393, 0.0266045, -0.118931, 
2.27785, 3.14688, 0.407808, 1.40886, -0.0050141, 
-0.289166, -0.507755, -0.699676, -1.15413, 0.00851358, 
0.252532, -0.36482, -0.408518, 5.64382, 0.0997894, 
-0.0181532, 0.026249, 0.00308319, 0.0723668, 0.0562646, 
0.00452278, 0.083442, 0.0495319, 0.00983553, 0.136991, 
-0.0351484, 0.0259153, 0.00614155, 1.19176, -2.81638, 
-0.514078, 0.881382, -0.257151, -0.486597, -0.187349, 
-1.26923, -0.464027, 0.181971, 0.485618, 0.0691355, 
1.36658, -0.173798, -0.0413093, -0.265832, -1.01119, 
-0.0471417, 0.201685, -0.132444, -0.0361785, -0.0858083, 
0.0962927, -0.0848372, -0.152459, -0.287675, -0.822893, 
0.135702, -16.7317, 7.52835, -6.51729, 17.316, 
-0.138875, -0.591076, -0.87604, -0.0401374, -0.439988, 
0.514362, 0.978875, 0.114317, 0.652455, 2.75847, 
0.127838, -0.0673431, -0.058183, -0.104182, 0.073971, 
-0.00959418, 0.123298, 0.100977, 0.0675852, 0.0445473, 
0.166355, -0.0726645, -0.0597856, -0.0462871, 0.0931391, 
-0.431765, -0.954361, -0.852153, 0.0753634, -0.436737, 
-0.404625, -0.215624, -0.268892, 0.521599, -0.201161, 
-1.0103, 0.115346, -0.997492, 0.0101888, 0.266479, 
0.116699, 0.149483, 0.00956709, 0.0848689, 0.0285464, 
-0.0281497, 0.0368108, -0.0187327, 0.133623, 0.160256, 
0.132136, 0.0975494, 0.809777, -2.9119, 1.60906, 
0.433096, -0.0618059, -0.0886098, 0.027982, -0.817968, 
-0.08592, 0.0535723, 0.354925, 0.586248, 1.21096, 
-0.723206, -0.0159389, 0.0745776, 0.0526613, 0.133663, 
0.0446259, -0.0496362, 0.0188244, 0.0471644, -6.58117e-05, 
0.0333697, -0.0445606, 0.0627888, 0.0244612, 0.123508, 
4.18755, 1.53047, -1.88803, -4.54538, 0.20431, 
0.0413455, 0.50537, 0.338508, 0.252371, -0.000301334, 
-0.370387, -1.02901, -0.616503, -0.652812, 0.00404532, 
0.0624655, 0.255373, 0.05062, -0.00559389, -0.0594389, 
0.000658649, -0.0496338, 0.00196121, -0.00272021, -0.0455981, 
0.0595863, 0.193358, 0.030662, -2.04355, 1.55208, 
-0.523008, -0.15559, 0.177406, 0.230804, 0.70517, 
0.000395192, -0.379844, -0.0423835, -0.195152, -0.4136, 
-0.524797, 1.05256, -0.109296, -0.637306, 0.0539148, 
-0.0858552, -0.606899, -0.300064, -0.0766599, -0.0802716, 
0.00901309, 0.0400887, -0.456173, -0.47669, -0.00608932, 
-0.219657, -4.26855, 10.958, -13.9916, -3.13647, 
0.0392604, 0.214159, 0.120234, -0.321367, 0.139534, 
0.0780652, 0.151579, -0.797584, 0.4504, -0.521148, 
0.0438544, -0.445612, -1.2245, -0.378183, -0.00752445, 
-0.517898, 0.490149, 0.561133, -0.314982, 0.177619, 
-0.296543, 0.0727557, -0.830196, -0.328138, -0.829027, 
-0.0582978, 1.13614, -12.5848, 0.0546282, -0.97928, 
-0.754297, -0.223966, -0.175016, -0.0240597, 0.172425, 
0.209448, 2.25374, 1.69033, -0.0182459, -0.0484306, 
-0.0919532, 0.0966783, 0.365315, 0.494533, -0.727803, 
0.780301, -0.580837, 0.355177, -0.1704, 0.0151144, 
-0.240249, 0.197192, -7.70031, 0.771764, -0.98316, 
6.65569, -0.0561571, -0.125888, -0.0773176, 0.176193, 
0.711231, -0.167186, -0.0388936, -0.460926, 0.103807, 

/* output layer */
-1.36902, 1.7905, 2.34488, -0.948134, -1.51596, 
-2.37084, 3.30504, -4.03211, -0.918167, -0.841675, 
-0.859274, };

static const int topo[3] = {27, 10, 1};

const MLP net = {
	3,
	topo,
	weights
};

