#include "mlp.h"

/* RMS error was 0.289219, seed was 1321882865 */

static const float weights[291] = {

/* hidden layer */
-0.199585, 0.519784, -0.56124, 0.794181, -0.511447, 
0.395744, -0.376191, 0.397133, -0.0705616, 0.0810292, 
-0.122263, 0.0953031, -0.10071, 0.0797124, -0.0624449, 
-0.0217925, 0.0169053, 0.37901, -0.327709, 0.541853, 
-0.341477, 0.270965, -0.244754, 0.270282, -0.0416849, 
1.12999, -0.40961, 1.22527, 0.233913, -0.387647, 
0.453466, -0.607947, 0.408126, -0.30037, 0.300392, 
-0.311586, 0.0725098, -0.0476953, 0.0892214, -0.0760982, 
0.0761782, -0.0615639, 0.0485215, 0.0206805, -0.0129586, 
-0.27531, 0.26983, -0.419162, 0.277476, -0.207749, 
0.196334, -0.211023, 0.0450457, -2.12546, -0.165252, 
-0.41337, 2.63555, 0.14104, -0.261118, -0.633559, 
0.218407, 0.611674, -0.412547, -1.20741, 0.427266, 
0.123023, 0.166406, 0.411747, -0.151141, 0.0896422, 
0.173108, -0.00137031, 0.243854, 0.211839, -0.296422, 
-0.628128, 0.149742, 0.248921, -0.156734, -0.874198, 
0.281824, 2.12192, -4.86663, 7.22716, -4.02194, 
-0.0303328, -0.084973, 0.130546, 0.934994, -0.130172, 
-0.212654, 0.135762, -0.100151, -0.0773431, -0.0163684, 
-0.0925923, -0.0533787, -0.00281159, -0.0454802, -0.0539635, 
0.00801064, -0.0741279, -0.13163, 0.122988, 0.823681, 
-0.104791, -0.159906, 0.150275, -0.0215005, -3.03836, 
4.06664, -2.89737, -1.02205, -0.0923251, 0.0475099, 
0.00546651, -0.0973161, 0.26429, -0.0825506, -0.0920445, 
0.377156, -0.265505, -0.458065, -0.168825, -0.0202509, 
-0.0429996, 0.0396544, -0.0239828, 0.165668, -0.0213517, 
0.185042, -0.0250296, -0.120034, 0.214526, -0.0463617, 
-0.1057, 0.135015, -19.0867, 1.25468, -2.08001, 
-8.82707, -0.101745, 0.0956654, -0.11192, 0.0305665, 
0.0417711, -0.0791366, 0.0595958, -0.0531078, -0.323443, 
0.105116, 0.161608, -0.00247322, 0.1102, 0.06836, 
-0.016405, 0.0748947, -0.40797, -0.0559214, -0.0119188, 
0.00719443, 0.0839447, 0.00538025, 0.059951, 0.0361408, 
-5.32823, 11.4557, -1.9048, -2.48173, 0.00338364, 
0.216516, 0.137032, 0.18395, 0.119532, 0.103407, 
0.0350206, -0.00728442, -0.144015, -0.149388, -0.10501, 
-0.123531, -0.0464658, -0.0159831, -0.053265, 0.0481782, 
-0.00839314, 0.284347, 0.0456719, 0.12639, 0.092542, 
0.05617, -0.0303728, -0.0620569, 7.4721, 5.47042, 
0.114486, 2.65169, -0.0866742, 0.145115, 0.559422, 
0.247432, 0.225527, -0.453849, 0.511296, 0.441921, 
0.110568, -0.0378332, -0.118717, -0.08303, -0.111274, 
0.126658, -0.0864498, -0.0251473, -0.0759235, 0.12197, 
0.529339, 0.0903978, 0.0657576, -0.362635, 0.365873, 
0.328984, 9.14411, -2.79891, 2.43201, 2.56583, 
-0.205957, -0.624725, -0.159719, -0.222437, -0.0953691, 
-0.067294, 0.0302929, 0.0176202, 0.185405, 0.332995, 
0.013006, 0.0113313, 0.0597282, -0.0178074, -0.000720698, 
0.117357, -0.186799, -0.615088, -0.133286, -0.183112, 
-0.0271545, -0.0700072, 0.0408067, 0.0998989, 2.10728, 
-2.5687, 2.42354, 1.49565, 0.0194189, -0.0334431, 
0.0516768, 0.180448, -0.179868, 0.00109635, 0.184112, 
-0.256548, -0.315385, -0.52391, 0.146098, 0.467537, 
0.251975, 0.0840594, 0.274851, 0.239901, -0.331939, 
-0.597664, 0.145825, 0.228226, 0.0303611, 0.0232017, 
0.298219, -0.145128, 19.4815, 0.038919, 0.101, 

/* output layer */
-5.28676, -5.60396, -5.78171, 0.576374, -1.09439, 
-1.20859, -0.792729, 1.30723, 0.519472, 0.813985, 
0.567552, };

static const int topo[3] = {27, 10, 1};

const MLP net = {
	3,
	topo,
	weights
};

