/*This file is automatically generated from a Keras model*/

#ifdef HAVE_CONFIG_H
#include "config.h"
#endif

#include "mlp.h"

static const opus_int16 layer0_weights[400] = {
   -240, 654, -75, 408, -556, -118, 263, -6,
   -752, -1274, -467, -72, 134, -1443, -914, 40,
   1545, 98, 765, 1099, -1524, -261, -1749, -1325,
   2102, -710, 886, 250, 8571, -112, -554, -688,
   1331, -872, 1940, 521, 3042, -1104, 1419, -10,
   -1248, 537, -266, 67, 3645, -923, 2715, 1100,
   -1625, -121, 3383, 1454, 2701, 962, 1468, 2683,
   -1257, -2634, -203, 4063, 2183, 327, 2742, -668,
   5884, 40, -581, -173, -1077, -1138, -855, -785,
   -1395, 1753, 3099, 1560, 1554, -196, -708, 978,
   -4012, 7372, -2197, 180, 2502, 872, -3729, -85,
   -2725, 217, 1006, 1559, -1987, -859, 3789, 1795,
   1491, -4137, 983, -847, -2997, -124, 1719, 397,
   -2712, 2626, 1334, 2141, 987, 273, -728, 33,
   -890, 4138, -596, 1828, -573, 108, -4578, -1964,
   -891, 1484, 915, -2583, 1185, -1387, -958, 959,
   9386, 850, -593, -234, -332, -2834, -1026, -1850,
   860, 441, -838, 157, 473, 1, -1017, 3182,
   -2789, -3008, -2340, 235, 1783, -942, 359, -2154,
   -2736, -637, 1977, -1237, -3009, -1522, 723, -445,
   -1375, 2414, -651, 800, 1170, -807, -3355, 87,
   -530, 195, 4271, 171, 5080, -2095, -2779, -1175,
   387, -1552, 139, 1930, -4, 2535, 1126, 1570,
   669, -454, 679, 199, -232, 427, 610, 493,
   910, 1099, 2237, -156, -1037, 834, 477, 664,
   -1241, 377, -1319, 630, 2097, 1097, -2395, -1456,
   -2743, 3287, 895, -2807, -71, 1398, -3335, -3014,
   -3059, 374, -885, 1145, 1152, -270, 1683, -142,
   1782, 1103, 753, 9910, -222, 30, -1901, 4424,
   96, -1979, -3784, 1156, -5734, 2284, 4292, -2974,
   -917, 3141, -830, -846, 728, -3914, 1338, -2497,
   -2350, 346, 2752, -2750, -1719, 356, -138, -549,
   113, 1893, -2441, 1113, -566, -1207, -798, 2364,
   614, -913, -264, -1206, 707, 511, 2144, 647,
   -1004, 4560, 935, 662, -2236, 286, -1486, 3384,
   -568, -2504, 616, 1645, -2371, 2380, 3719, -4449,
   -871, -2057, 1413, -1763, -1805, -8837, -7361, 8838,
   -1481, -2894, -937, 3069, -2708, 11683, 5197, 4065,
   1146, 470, 799, -984, -1424, 892, 526, -2811,
   1611, 2206, 4118, -1278, 2053, 312, 4004, 1934,
   -20326, 13516, 30269, -4332, -28763, 1544, -7545, -23283,
   -7798, 22722, 9104, 19296, -8358, -4231, -20432, 22549,
   -11150, 480, 12644, -1594, -11124, -728, -2824, -4159,
   -10517, 9189, -223, 6971, 3823, -2317, 3884, 11839,
   2006, -5516, -2097, 13045, 1395, -5358, -12381, 10571,
   -880, 703, 5349, -1681, -6251, 2134, -10794, -6027,
   13691, 6191, -31769, -18198, 20638, 3410, 10400, 5783,
   28647, 4108, -22497, 4613, 176, -21458, -8673, -16329,
   9868, -10469, -9278, -886, 7460, 8719, 1843, 302,
   3985, 16698, -12254, 2820, 3570, 9092, -269, -1186
};

static const opus_int16 layer0_bias[16] = {
   -128, 2713, -1910, -227, 3592, -920, 3413, -1050,
   3696, 100, 2877, -1315, -3524, -1286, -900, -216
};

static const opus_int16 layer1_weights[576] = {
   716, 3361, -207, 1915, 7159, -3181, -2889, -4591,
   6339, -2593, 1475, 312, -1071, 3650, -797, -9016,
   10847, -4378, 2224, -5296, -5107, 3707, -3160, -2015,
   5496, -1227, -3113, -3103, 517, -729, -1401, -2351,
   -1516, 2889, -225, -1426, -2946, 2397, 775, 3375,
   6940, 1207, 827, -708, -706, 2961, 1353, -2270,
   -212, -83, 2979, 1768, -2021, 2697, -683, 1235,
   -6341, -229, -1714, 1751, 2469, -836, 1752, -1054,
   3957, 1472, 1182, -512, -1628, 2189, -891, 178,
   -1242, -6102, -1818, -3533, 1090, 902, 2463, 2577,
   -5862, -1528, -5295, -4931, 3072, -465, -2189, 5770,
   -624, -1407, -2582, 9563, 2115, 1137, -1522, 2453,
   -3503, 2157, 2372, -2341, 885, 1227, 656, 2203,
   2816, 2062, 2751, 2039, -5579, -1418, -2812, -4207,
   2052, -4361, -3437, -3472, -4297, 7880, -4377, -4184,
   -8, -5342, -1967, 2516, -1809, -28, 1009, 1834,
   -3131, -1272, -507, -1612, -957, 234, 1865, -126,
   -1479, 25, 2432, -372, -1007, 1913, -3103, 1934,
   2040, 2639, 2759, 5245, 1803, -766, 3043, -266,
   -952, 460, 6505, 3636, 1475, -458, -1736, -5842,
   -1172, -1803, 3628, 5170, 6200, 3053, 3258, -2012,
   825, -1960, 41, 92, 1206, -3021, -3103, -3387,
   -2090, -3535, 1774, -2820, -7953, 47, -2236, -5759,
   -609, -7123, -11057, -2622, -3194, -7810, -2982, -6181,
   -4145, -5172, 4419, -5645, -3436, -384, -2797, -6723,
   1835, -2606, -4392, -1185, -839, 1214, 1893, -1545,
   52, -3949, -4050, -790, -28, -701, 2961, -1142,
   928, 464, -1516, -3246, -7509, 8395, 1465, 5612,
   -1938, -3452, 1209, -2307, -1415, 3333, 2041, 4294,
   -1656, -1162, 4021, -1295, -1229, -2806, -709, 129,
   2393, -1214, 1082, -1280, 2510, 1896, 107, -1626,
   -1810, 510, 815, -2729, -1061, -666, 2902, -4293,
   -6804, -1460, 4638, -5750, -7319, -8926, -4480, 2358,
   -1146, -2665, -2516, 1677, 1551, 3412, 3231, 3341,
   -7275, -1555, 763, 2023, 2079, 360, -751, 1494,
   -3587, 1375, 851, -720, -1487, -758, -3602, 288,
   3327, 10218, -874, -1244, -10531, 1163, 3974, 4647,
   7148, -4196, 3287, 1735, -114, 170, -887, -4088,
   2251, -2355, 1828, -5821, 1968, -1676, 2692, -10,
   1564, -3653, 522, -542, -1133, -2767, -2393, -2245,
   815, -2562, 1345, -1757, -6462, 459, -1292, 5032,
   -6086, -5333, -9509, -7923, -325, -2130, 3201, 4037,
   10343, -4883, 1805, -6369, -4367, -1487, 2241, -4460,
   2673, 2780, 95, -2872, -2427, -2943, 2604, -302,
   -2773, -2819, -2007, 2498, 1272, 3274, -678, -1169,
   1340, -7067, 5157, -3180, 3110, 3450, 971, -5574,
   -671, -1964, -58, -939, 3000, -6664, -2558, -4213,
   528, 1743, 571, -820, -628, -9021, -1323, -45,
   -1422, -1147, 1458, 1909, 301, 690, 385, 3055,
   972, -2759, -3122, 1818, -2531, 1868, 18, 5784,
   4541, 2282, -6700, -606, 3589, -2357, 10955, -756,
   -804, 998, 5276, -1832, -1292, -8131, 1985, 928,
   1461, -2008, 228, -12, -2907, -2633, -3517, 756,
   1209, 615, 1081, 1724, 2521, 3067, 1112, 101,
   4685, 2627, 4582, 4050, 4387, 3896, -779, -7534,
   7881, -1024, -4989, -1405, 2675, 1105, -529, -5028,
   5764, -1184, 2521, 6811, -2610, 2214, -2302, -1523,
   -1190, -1077, 1689, -1041, 1068, -1985, -163, 2576,
   -1598, 224, 750, 2202, 3471, -5860, 101, -445,
   3740, 2360, 5355, 5321, 1385, -4473, -4495, 4706,
   -2149, -1147, 154, -4238, 2516, 1190, -3902, -4248,
   -1211, -1007, 4263, 1258, 2201, 2438, 2313, -1706,
   -5184, 728, -2447, 236, -1328, 4144, -1329, 2486,
   -4176, 1196, -737, -222, 1513, -1002, -1210, 515,
   1123, 10911, -1208, 2647, 24, 5290, 1767, 931,
   660, 3678, -328, 358, -174, -3899, 2553, 5336,
   1659, 870, -1881, 1622, -1240, 3751, -934, 493,
   -576, -1009, 1447, 2515, -1944, -2841, -1854, -1465,
   -1141, -1220, -4001, -9290, 4777, 3910, -2905, -12910,
   5012, -6602, -28, 1194, -89, 4373, -2918, -4058,
   137, -493, 2312, -8856, -3629, 2219, -4971, 4124,
   -294, -1733, 1602, 3772, 1231, 15, 2485, -27
};

static const opus_int16 layer1_recur_weights[432] = {
   -255, -8321, -3115, 262, 4409, -10399, -3725, -12496,
   2961, -2744, 3444, 4673, -2335, 1378, -2267, 795,
   1673, -2530, 2902, -11053, 3638, -1656, 5080, 411,
   7064, -6310, 1504, -3595, 2602, 1468, -695, -3914,
   1594, -202, 134, 2193, 2980, -1418, 6627, 1510,
   3565, -5182, 3744, -10858, -2066, 2920, -9479, -2595,
   -1884, -6746, -945, 947, -2637, -2254, 435, 1855,
   -5117, 3266, -1087, -4284, -4271, 11672, 2934, 387,
   1556, 7706, 1114, 624, -1206, -897, -2831, -1460,
   -1051, 842, 894, -1988, -2646, 3573, 2662, -1403,
   -196, -3999, -9911, -4818, 2869, -266, -817, -1607,
   -5878, 5180, -6261, -6659, -350, 3503, -1402, 2076,
   2475, 1792, 4296, -311, 2297, 1117, 3964, 863,
   2184, 4262, 5342, -6298, 3664, 3593, -2617, -4019,
   -5310, 3234, 1433, 1254, 7390, 138, -4996, -8734,
   8289, 3784, 3582, -720, -1334, 6796, 670, 1192,
   2207, 32, 1030, 366, -2784, 4691, 4303, 6632,
   2820, -2059, -1959, 951, 2811, 529, 4617, -4107,
   -1917, 4281, -1153, 4244, -6239, 6488, 1741, 4363,
   2187, 3439, -1666, -3454, 2386, -1016, 1168, -416,
   -592, 1295, 873, 5818, 328, 3186, -2172, 636,
   4090, -4822, 3105, 2723, 663, -7310, -2770, -6867,
   3026, 1185, 4001, 731, 4093, -950, 1692, 1856,
   -2795, -1588, 2746, -3686, -231, 1415, -3846, 409,
   -1568, -769, -1139, 6278, -4495, -3727, 1258, -4192,
   -3677, 1496, -1687, -5403, -512, 914, 6549, 1229,
   46, -418, -1870, 5664, 737, 1766, 1728, -3650,
   -8002, 1872, 6212, 3010, 938, 6018, 3515, 3691,
   -5453, -1094, -1613, 1542, -1732, -1375, 7580, 4898,
   1597, -1251, 2146, 6954, -6563, 5074, 1718, 1522,
   3186, 183, -254, -1468, -607, 2370, -5684, 2109,
   -4101, -1226, -2860, 975, -4899, -7225, 5214, -663,
   -2349, 4806, 857, 2714, -5465, 5627, -3036, -2627,
   1122, -1358, 1702, 687, -990, 2459, -1261, 1130,
   -5898, 1474, -892, -5157, -3756, 5317, 2728, -2135,
   -161, -699, 801, 6045, 6147, 606, -2421, -316,
   -534, -5687, 2068, -2831, 2066, -1432, 3021, -5106,
   -5551, 2640, -9790, -3026, -3152, -8083, 5512, -4016,
   873, -635, -2738, 734, 1960, 293, 2359, 7743,
   -660, 2402, 2125, 171, 149, -3435, -709, 7971,
   5579, -446, 1965, 726, 358, -5190, -666, -1445,
   5411, -6739, -5064, -1019, -8369, -993, -3661, -5311,
   -289, -1099, -661, -2322, -2254, 1041, -7728, -3474,
   -1219, 3650, -3314, -1979, -3626, -1641, 344, 2897,
   1349, -2025, -1458, 36, 964, 2706, 8018, -2858,
   657, 11399, -1526, -1864, -2297, 9323, 861, 990,
   5923, 1906, -900, -4731, 3633, 4550, -1833, -991,
   667, 2301, -394, 2995, -329, 198, -475, 260,
   -2795, 2003, 7446, 1716, 8057, 1627, -1477, -4365,
   -124, 5924, 5261, -493, 4454, -2716, -2807, -387,
   -2543, -3794, 629, -1484, -15868, -2549, -8393, -8412,
   -2093, -1029, -1961, 2117, 2929, 928, -1525, 2439,
   -3156, 1301, 2017, -3496, 1599, -284, -875, -1907,
   1644, 1971, -3871, 2002, -6226, -850, -7908, 3251
};

static const opus_int16 layer1_bias[36] = {
   12031, 6644, 8798, 6394, -2124, 8326, 5073, 8423,
   6296, 4156, 9202, 4444, -896, 557, 4986, -2091,
   2692, 1698, 1041, 1094, 793, 2641, 1979, 4070,
   -3233, 2640, 1602, 680, 348, 2481, 2150, 1321,
   -2183, 1207, 1194, -4621
};

static const opus_int16 layer2_weights[24] = {
   1315, -13311, -5272, 13586, 9364, 1644, 6921, 199,
   11446, -1705, -552, 15119, -5040, 27609, 5978, 11565,
   21690, -1252, 8074, 1931, 9618, -1597, -14904, 562
};

static const opus_int16 layer2_bias[2] = {
   3409, 8317
};

const DenseLayer layer0 = {
   layer0_bias,
   layer0_weights,
   25, 16, 0
};

const GRULayer layer1 = {
   layer1_bias,
   layer1_weights,
   layer1_recur_weights,
   16, 12
};

const DenseLayer layer2 = {
   layer2_bias,
   layer2_weights,
   12, 2, 1
};

