#ifdef HAVE_CONFIG_H
#include "config.h"
#endif

#include "mlp.h"

/* RMS error was 0.315104, seed was 1479763182 */
/* 0.006838 0.032708 (0.315104 0.315104) 7.21128e-09 8044 */

static const float weights[450] = {

/* hidden layer */
1.16791f, 0.0117457f, -0.173725f, 0.00088526f, -0.182404f, 
-0.0160565f, -0.0683622f, -0.101919f, -0.0460863f, 0.00236859f, 
0.0214204f, -0.0522124f, -0.00439659f, 0.126548f, -0.0747379f, 
0.00759737f, -0.0465382f, 0.0282859f, -0.00823783f, 0.49046f, 
-0.0038811f, 4.67584f, -1.75408f, 0.189231f, 6.88353f, 
-0.169735f, -0.302665f, 0.0344662f, 0.0376251f, 0.0824736f, 
-0.00808218f, -0.00840575f, -0.0134915f, -0.0852928f, -0.0557674f, 
-0.0524697f, -0.0267727f, -0.0711738f, 0.168746f, 0.345237f, 
0.114282f, 0.0130365f, 0.0224121f, -0.124843f, -0.119323f, 
-0.147682f, -0.149418f, 1.44711f, -0.0385809f, 1.64565f, 
1.702f, 4.94977f, 1.1675f, -0.00709793f, -0.028046f, 
0.0130692f, 0.0110228f, 0.00442845f, 0.0270771f, -0.012915f, 
-0.0205496f, 0.00731574f, 0.0290182f, -0.0137988f, -0.0496688f, 
0.0497328f, -0.0500723f, 0.0693743f, 0.125171f, 0.002266f, 
0.0820088f, 0.0801653f, -0.0815278f, -0.312179f, 0.499351f, 
0.0146673f, -0.0729864f, -3.07368f, -1.12587f, 0.0807415f, 
0.0317455f, 0.0629169f, 0.0489931f, -0.0143552f, -0.0121456f, 
-0.000922163f, -0.0195092f, -0.0354053f, -0.0316398f, -0.0409961f, 
-0.0762715f, -0.119086f, -0.0515177f, -0.286433f, -0.0256642f, 
0.00490787f, 0.089922f, 0.272454f, -0.00799747f, -3.92076f, 
-0.923539f, -0.344524f, -1.1584f, -0.232077f, -2.54335f, 
-0.0289305f, 0.180725f, -0.0541124f, 0.113015f, 0.0614053f, 
-0.194218f, 0.126639f, -0.0941479f, -0.0399991f, 0.0308558f, 
-0.097045f, -0.00974284f, -0.234078f, -0.117714f, -0.742824f, 
-0.0562217f, 0.225729f, -0.0762788f, -1.06489f, 0.124149f, 
0.361664f, -0.174717f, -0.413253f, 1.55378f, 0.635495f, 
0.831817f, 0.00214014f, 0.0301272f, 0.0165128f, -0.00468816f, 
-0.00518814f, -0.00861749f, -0.00566215f, -0.00880481f, -0.00152252f, 
-0.0150631f, -0.0182496f, -0.0161498f, -0.0868953f, 0.0632226f, 
-0.0385318f, 0.0151289f, 0.0268427f, -0.00495099f, 0.16565f, 
0.0273735f, 0.716388f, 1.38317f, -0.0482318f, -0.817091f, 
-0.823276f, 0.126554f, 0.008395f, -0.0788533f, -0.0305483f, 
-0.0141837f, 0.0287401f, 0.0220461f, 0.0798372f, -0.0162728f, 
-0.034366f, 0.0578138f, -0.027475f, -0.369605f, -0.690334f, 
-0.287187f, -0.174793f, 0.719982f, 0.792722f, 1.08376f, 
3.42282f, -0.0205459f, -1.11499f, -0.23692f, 5.31937f, 
0.338354f, 2.88862f, -0.0488146f, -0.0693933f, -0.0525298f, 
-0.0691915f, -0.0748021f, -0.0479683f, 0.0557816f, -0.0234204f, 
0.0711225f, -0.0284554f, 0.0748894f, 0.0312238f, 0.0430777f, 
-0.149758f, -0.0643999f, -0.328943f, 0.0220431f, -0.00670375f, 
-0.150891f, 0.0826483f, -0.0416984f, 0.91942f, 0.288807f, 
-0.784006f, -0.316274f, -0.914043f, 0.847168f, -0.0511541f, 
0.0591144f, 0.0444577f, -0.0523042f, 0.0435139f, -0.0368748f, 
-0.0238474f, 0.0578224f, 0.033423f, -0.00959278f, 0.000368111f, 
-0.033063f, 0.0498318f, -0.193449f, 0.342364f, 0.0248039f, 
0.106036f, -0.105387f, 0.660923f, -0.0940084f, 0.649895f, 
-0.879327f, 0.567143f, 1.64079f, 4.26012f, -0.891701f, 
0.0566126f, 0.0565989f, 0.126332f, 0.0622828f, 0.00303243f, 
-0.0209919f, -0.0316721f, -0.00332618f, -0.0104709f, -0.0439127f, 
-0.052425f, -0.0328074f, -0.000365187f, -0.151337f, -0.0136578f, 
0.00736587f, -0.0245835f, 0.104102f, 0.246421f, -0.0320614f, 
-2.13688f, -0.644779f, -0.587536f, -0.0876224f, -0.845826f, 
-0.675112f, 0.00497933f, -0.0138469f, 0.0478949f, -0.0193546f, 
0.0743611f, 0.0919097f, -0.021396f, -0.00987072f, 0.0906004f, 
0.15022f, -0.0719682f, -0.123023f, -0.032162f, -0.226081f, 
0.0112323f, 0.143681f, 0.0963748f, 0.388256f, 0.499536f, 
-0.0717579f, 0.245617f, -0.541487f, 0.495578f, 2.30802f, 
0.995929f, -0.829615f, -0.00364842f, 0.0295008f, -0.00799017f, 
0.0072746f, -0.063231f, -0.129824f, -0.020175f, -0.0221331f, 
-0.121943f, -0.138491f, -0.0277175f, 0.0259129f, -0.113353f, 
0.0901211f, -0.0515522f, 0.00156965f, 0.0223951f, -0.0542028f, 
-0.198752f, -0.00318196f, -0.711666f, 1.09381f, 0.000768032f, 
-2.31925f, -0.019048f, -1.17297f, -0.0540454f, -0.050889f, 
-0.00426479f, 0.185899f, 0.0558439f, 0.123861f, -0.00353509f, 
-0.178127f, 0.0683067f, -0.00891811f, 0.0577757f, 0.12994f, 
0.298556f, -0.0244329f, -0.455871f, 0.106323f, -0.268203f, 
0.034243f, -0.42948f, -0.228146f, -0.421731f, -1.2974f, 
2.90981f, 1.83682f, 1.22827f, 0.646216f, 0.00618927f, 
-0.163023f, -0.0588448f, -0.0680873f, 0.00265286f, 0.15079f, 
0.0180199f, 0.0521558f, -0.0251215f, 0.211758f, 0.000908394f, 
-0.0665474f, -0.179624f, 0.0223256f, -0.258492f, 0.0329357f, 
0.0776958f, -0.0431089f, 0.627821f, 0.0300259f, -1.08477f, 
1.59281f, 0.523867f, -3.2745f, -1.30564f, -0.228395f, 
-0.0872362f, 0.0218742f, -0.0650792f, -0.0307158f, 0.0112539f, 
-0.0289815f, 0.00459511f, 0.00851279f, -0.0055035f, 0.032939f, 
0.00853459f, -0.0193472f, 0.0590096f, 0.323122f, 0.0439625f, 
0.0102308f, 0.103701f, -0.389139f, 0.629254f, 0.0838598f, 
1.43368f, -0.658163f, 0.0295287f, -0.46143f, 3.01521f, 
-0.749628f, -0.0302256f, -0.106793f, 0.0680327f, -0.0972569f, 
0.0024169f, 0.0499889f, -0.0418845f, 0.0831352f, -0.0491967f, 
0.0701002f, -0.0329629f, -0.0539425f, 0.151929f, 0.187274f, 
0.29397f, 0.132495f, -0.0677414f, -0.0609771f, -0.475259f, 
0.0238476f, -1.7368f, -0.280829f, -0.0644994f, 0.342657f, 
2.05706f, 
/* output layer */
1.33932, 1.70279, -1.27695, -4.52246, 0.0740156, 
1.71598, 8.63902, -1.26394, 1.60628, -1.2561, 
1.62678, -1.8133, -3.03604, 1.71492, 0.531547, 
-1.01656, 1.71594, 6.91163, -0.566851, 0.438947, 
0.0745278, -7.43604, -0.0317548, 0.585059, -0.646684, 
-0.632673, -5.15384, 8.68134, -0.0264247, 1.16378, 
-0.232851, 1.29058, 2.1686, -0.757127, };

static const int topo[3] = {25, 16, 2};

const MLP net = {
	3,
	topo,
	weights
};
