/*This file is automatically generated from a Keras model*/

#ifdef HAVE_CONFIG_H
#include "config.h"
#endif

#include "mlp.h"

static const opus_int16 layer0_weights[400] = {
   -280, 781, -38, 330, -550, -93, 229, -36,
   -790, -1279, -487, -83, 101, -1246, -890, -10,
   1839, 220, 911, 1074, -1723, -75, -1838, -1662,
   2091, -1038, 849, 139, 8866, -79, -788, -761,
   1501, -1470, 2265, 714, 3034, -1369, 2605, 284,
   -1505, 585, -661, 239, 3922, -696, 2852, 1168,
   -1448, -79, 3497, 1459, 3135, 1193, 2079, 2851,
   -1620, -3066, -330, 4821, 2421, 302, 2684, -825,
   7235, -524, -783, -284, -1273, -1240, -638, -1134,
   -1458, 1973, 3222, 1494, 1589, -216, -514, 944,
   -4239, 8610, -2194, 309, 2739, 640, -3629, 36,
   -2662, 525, 1499, 2177, -1943, -629, 3752, 1868,
   2487, -4650, 469, -976, -3254, -577, 991, 320,
   -2554, 3034, 1200, 1815, 1050, -34, -1300, 161,
   -197, 4243, 189, 2364, -905, 19, -5172, -1802,
   -825, 1636, 651, -2836, 1298, -1248, -713, 1108,
   9501, 1018, -627, -255, -153, -2672, -828, -1900,
   732, 656, -1056, 340, 716, 39, -1302, 3137,
   -5068, -3265, -2636, -187, 2046, -651, -730, -2069,
   -3018, -464, 1596, -828, -3135, -1111, 859, -626,
   -1087, 3119, -872, 404, 1655, -1128, -3313, -42,
   -895, 873, 4236, 516, 5895, -1035, -3053, -1425,
   466, -1643, 351, 1871, -58, 2489, 1130, 1514,
   915, -507, 440, 49, -299, 344, 571, 590,
   815, 1098, 2018, -263, -1112, 734, 470, 613,
   -1471, 205, -856, 658, 1970, 1096, -2395, -1434,
   -2845, 3776, 1282, -2572, -166, 1687, -3503, -3306,
   -3491, -94, -1104, 881, 864, 145, 829, -73,
   1817, 1889, 1069, 10183, -426, 76, -1921, 4589,
   321, -1452, -4531, 1057, -6152, 2076, 4669, -2918,
   -982, 3059, -638, -398, 848, -3932, 1326, -2463,
   -2338, 445, 2508, -2430, -1798, 598, -204, -538,
   -13, 1615, -2561, 1179, -610, -931, -592, 2424,
   696, -1201, -33, -833, 151, 174, 2064, 590,
   -1002, 5313, 1337, 1074, -2188, -48, -2225, 3092,
   147, -1951, 686, 2045, -2741, 1661, 3478, -4660,
   -1324, -2414, 1345, -2219, -1763, -10105, -8527, 8521,
   -1938, -3378, -1557, 3308, -2575, 12174, 6580, 4474,
   985, 404, 740, -955, -1378, 796, 460, -2728,
   1122, 2211, 5244, -1053, 2330, 268, 4008, 1965,
   -21467, 12558, 33916, -7431, -32768, 1159, -11836, -26398,
   -4472, 24818, 9192, 22850, -9374, -5801, -21781, 23460,
   -12573, -209, 14273, -2226, -11862, -770, -3297, -4683,
   -10777, 10072, -776, 8372, 4036, -3768, 4365, 12643,
   1777, -6808, -1121, 15681, 878, -5317, -13357, 12406,
   -1552, 26, 6876, -2706, -6910, 3034, -11861, -6607,
   12927, 7613, -32768, -18603, 22791, 3039, 11497, 5365,
   31190, 5166, -22706, 5667, -477, -24729, -7091, -16884,
   10559, -11608, -10627, -1621, 8118, 7505, 944, -36,
   6032, 17233, -12600, 3227, 4524, 9628, -668, -1241
};

static const opus_int16 layer0_bias[16] = {
   -134, 2827, -2113, 321, 3990, -855, 3199, -775,
   4439, -112, 3549, -1510, -4679, -1764, -750, -147
};

static const opus_int16 layer1_weights[576] = {
   512, 2274, 89, 1584, 8142, -3218, -2673, -4417,
   7046, -2550, 1793, 88, -946, 4578, -340, -11211,
   11322, -4375, 1836, -5696, -5788, 3125, -3690, -1584,
   5341, -907, -3163, -3206, 437, -723, -1410, -2014,
   -1177, 3043, 16, -1218, -3278, 4024, 705, 3627,
   5654, 1366, 513, -1401, -626, 3270, 732, -2608,
   -851, -1115, 3698, 1056, -1298, 2526, -1059, 2058,
   -7248, -735, -2021, 1267, 2858, -799, 1598, -1012,
   3949, 1365, 1029, -672, -1812, 2285, -169, 100,
   -2542, -5874, -1973, -4242, 1190, 561, 1318, 4383,
   -5540, -907, -4816, -4785, 3526, -126, -2853, 6005,
   -1057, -1779, -2828, 10617, 2856, 1291, -1494, 3626,
   -3415, 1863, 2501, -2637, 919, 716, 968, 1952,
   3097, 1725, 2791, 1769, -4099, -262, -3281, -4961,
   1772, -3522, -3053, -3467, -3215, 8194, -3961, -3966,
   327, -5288, -2018, 2922, -1971, -659, 1222, 2233,
   -2903, -1167, -1131, -617, -775, 292, 1841, -51,
   -1535, -66, 2307, -231, -1050, 2035, -3516, 1806,
   1160, 2176, 3100, 6109, 1836, -627, 3229, -19,
   -736, 894, 6468, 3073, 1192, 276, -2823, -6068,
   -981, -1835, 3559, 6837, 7113, 3649, 3229, -2042,
   733, -2377, -19, 0, 1119, -2671, -3202, -3559,
   -1482, -3529, 1177, -2635, -7540, 1102, -1549, -5971,
   -2555, -5780, -11139, -2778, -3916, -7731, -3410, -5698,
   -3911, -5868, 5997, -6270, -3650, -881, -2942, -6511,
   2578, -2756, -4399, -2021, -676, 884, 2219, -1245,
   -50, -4009, -3940, -1021, -457, -555, 2801, -1182,
   931, 553, -1744, -3605, -7527, 9402, 282, 5119,
   -1928, -4585, 1501, -2239, -1633, 3145, 2736, 3440,
   -724, -1748, 4538, -281, -1216, -3303, -1693, -405,
   2671, -1213, 1028, -1341, 2482, 1925, -229, -2222,
   -1765, 742, 259, -3022, -1267, -501, 3547, -4062,
   -7800, -1493, 5149, -6409, -6754, -9315, -5384, 2576,
   -525, -2599, -2928, 63, 1928, 3361, 4694, 3978,
   -8048, -1854, 576, 1957, 2342, 788, -925, 1673,
   -3856, 1283, 757, -404, -1203, -816, -3599, 134,
   2966, 11033, -1123, -2191, -10182, 992, 3063, 4360,
   7145, -3947, 2566, 1502, -33, 127, -839, -3148,
   2407, -2587, 1883, -5837, 2884, -1889, 3248, 124,
   1288, -3675, 749, -601, -1516, -3053, -2400, -2123,
   716, -3082, 1831, -1626, -7767, 226, -1262, 5815,
   -7124, -5557, -7512, -8827, -668, -1696, 2445, 3804,
   10928, -5067, 1363, -6363, -4597, -1544, 2551, -3209,
   2469, 3556, 167, -3722, -2635, -3372, 2481, -559,
   -2835, -3161, -2408, 2548, 1202, 3233, -895, -1572,
   2102, -6757, 5295, -3745, 2862, 2886, 1884, -5358,
   -1428, -2355, 443, -1283, 4317, -8268, -2146, -4723,
   386, 1800, 78, -1665, -446, -9435, -1114, -120,
   -1376, -1167, 1671, 1920, 441, 609, 814, 2909,
   1079, -3159, -2945, 1990, -2799, 1095, -855, 5436,
   4874, 2864, -5017, -1073, 3937, -1636, 10972, -74,
   -951, 1974, 4714, -2400, -1719, -9870, 3832, 2145,
   920, -2285, 1188, 572, -3550, -2744, -3787, 612,
   1076, 483, 1146, 2032, 2079, 3416, 877, 764,
   4868, 2184, 4498, 3227, 3879, 4193, -614, -8056,
   8024, -1568, -5239, -1511, 4460, 422, 356, -5543,
   5847, 12, 3268, 6678, -2730, 1757, -1390, -852,
   -1084, -1016, 1617, -1409, 791, -2206, -261, 2491,
   -1302, 279, 1070, 1949, 3682, -6736, 940, -818,
   6249, 3136, 4782, 5551, 1597, -4118, -4722, 5315,
   -2944, -1094, 350, -4175, 2750, 1388, -4604, -4982,
   -1417, -1145, 4758, 1300, 1998, 1998, 2148, -1658,
   -5322, 1169, -2531, 89, -1324, 3997, -1176, 2960,
   -5017, 1378, -875, -1044, 1314, -1183, -546, 538,
   1314, 11116, -1078, 2796, 295, 4952, 1947, 607,
   1326, 3557, -534, 1236, 195, -4728, 2929, 5483,
   1737, 1016, -1759, 1518, -1440, 3570, -1077, 621,
   -873, -980, 1599, 2513, -2817, -1859, -1501, -1140,
   -74, -1328, -3894, -8993, 4340, 4047, -2663, -13462,
   5555, -6824, -341, 637, 364, 4446, -3379, -4363,
   749, 357, 2984, -9444, -3630, 2048, -5052, 4259,
   -123, -1545, 1565, 3692, 1399, 80, 2381, 295
};

static const opus_int16 layer1_recur_weights[432] = {
   216, -7964, -3503, -88, 5180, -10953, -4378, -14662,
   2589, -3516, 3378, 5571, -2627, 2563, -2356, 847,
   1102, -2796, 3731, -11241, 3554, -2497, 5069, 35,
   6648, -7079, 1218, -4431, 3185, 1987, -363, -4223,
   1663, -838, 344, 1929, 2915, -1761, 6702, 2141,
   4129, -4758, 5009, -11632, -1472, 3324, -9049, -3166,
   -1757, -7327, -1533, 346, -2712, -2555, 352, 2241,
   -6356, 4115, -1279, -4123, -4494, 12156, 3557, 284,
   1396, 8082, 650, -309, -1200, -920, -2681, -1668,
   -1434, 1011, 1478, -1098, -3266, 3565, 2121, -1145,
   -141, -5175, -9381, -5986, 3575, 136, -587, -1510,
   -6821, 5770, -6634, -7246, -707, 3675, -1329, 2709,
   1631, 2563, 4527, -309, 1963, 1842, 4073, 748,
   1796, 4258, 5390, -6856, 3422, 4075, -3804, -4353,
   -5304, 2539, 1940, 1190, 7658, -17, -5436, -10347,
   8405, 3373, 3638, -760, -618, 6739, 1237, -1074,
   2226, 216, 1274, 1674, -3742, 4480, 4562, 6612,
   2823, -2128, -1739, 1219, 3168, 930, 4827, -3659,
   -2587, 4162, -587, 4050, -6673, 6282, 3095, 5727,
   968, 3798, -1913, -3693, 3572, -535, 1178, -300,
   -242, 1390, 2220, 5106, 396, 3435, -2787, 840,
   3547, -5104, 3274, 2961, 242, -7415, -2253, -7093,
   3131, 1301, 4136, 334, 5208, -1570, 1553, 1930,
   -3027, -2166, 3127, -2403, 717, 1732, -2986, 1147,
   -1147, 582, -1572, 7286, -4737, -4413, 1849, -5532,
   -4430, 1793, -1600, -6862, -525, 765, 6743, 1153,
   52, -421, -2747, 5723, 629, 2232, 1874, -3699,
   -8108, 326, 6465, 3304, 2117, 5524, 3021, 4589,
   -5150, -1062, -1529, 1902, -1669, -4379, 8238, 4420,
   1035, -1305, 1866, 8606, -7586, 5440, 2150, 1827,
   4160, 204, -331, -1427, -581, 3446, -6924, 2294,
   -4704, -852, -3263, 766, -5125, -7408, 4568, -819,
   -3155, 4115, 895, 3302, -6269, 6268, -3783, -2830,
   1426, -1106, 1868, 94, -1109, 3308, -2174, 997,
   -6783, 981, -1049, -6083, -4024, 6153, 3388, -2118,
   222, 454, 647, 5481, 5929, 429, -2273, -86,
   583, -6904, 2076, -2309, 2628, -1934, 2087, -7072,
   -6777, 2163, -10838, -3135, -2936, -9190, 5733, -5365,
   -104, -434, -5430, 1836, 2276, -412, 2368, 8828,
   -478, 1364, 1544, 607, -508, -3455, -907, 9307,
   5561, -1348, 2845, 2460, -138, -6707, -486, -1312,
   5962, -8234, -7752, -1070, -9111, -1692, -2788, -5741,
   -1518, -1193, -1365, -2525, -1588, 564, -7833, -3608,
   -707, 3816, -3276, -1441, -3810, -1527, 382, 3083,
   1465, -2720, -2171, -144, 952, 3444, 7965, -2863,
   925, 12056, -1513, -2050, -1654, 8793, 1866, 1464,
   6022, 1687, 419, -5742, 3723, 4643, -3137, -1534,
   1245, 2554, 724, 2563, -26, 1096, -375, 883,
   -2127, 2446, 7923, 2305, 8782, 2147, -1736, -4135,
   -274, 6485, 4844, -347, 4708, -2264, -3939, -1097,
   -3008, -3833, -299, -1965, -17149, -3181, -10953, -10151,
   -2719, -738, -2496, 1837, 2844, 849, -1762, 2393,
   -3183, 623, 1770, -4126, 1544, -307, -769, -1806,
   1723, 2571, -4309, 2157, -6670, -1473, -8858, 2651
};

static const opus_int16 layer1_bias[36] = {
   13840, 6386, 9119, 6666, -3177, 8921, 5538, 9677,
   6564, 4684, 9066, 3646, -905, -706, 5129, -2941,
   2712, 1729, 1129, 1527, 683, 2620, 1751, 4025,
   -3414, 3059, 1571, 581, 532, 2632, 2124, 1261,
   -2315, 1498, 1240, -5074
};

static const opus_int16 layer2_weights[24] = {
   994, -14381, -4997, 14042, 9964, 1511, 7031, -622,
   11716, -1733, -598, 15224, -4553, 29656, 5198, 12275,
   21698, -939, 7689, 2150, 9689, -2232, -15553, 774
};

static const opus_int16 layer2_bias[2] = {
   3760, 8442
};

const DenseLayer layer0 = {
   layer0_bias,
   layer0_weights,
   25, 16, 0
};

const GRULayer layer1 = {
   layer1_bias,
   layer1_weights,
   layer1_recur_weights,
   16, 12
};

const DenseLayer layer2 = {
   layer2_bias,
   layer2_weights,
   12, 2, 1
};

