/*This file is automatically generated from a Keras model*/

#ifdef HAVE_CONFIG_H
#include "config.h"
#endif

#include "mlp.h"

static const float layer0_weights[400] = {
   0.0759596526623, 0.104144737124, -0.0187084209174, 0.00918213091791,
   -0.00832864362746, -0.060765568167, -0.236335977912, -0.0354679822922,
   -0.00729726720601, -0.035793159157, 0.107391685247, 0.119247943163,
   -0.06001380831, 0.0298658013344, -0.135622054338, -0.19794420898,
   -0.777125418186, -0.0441677197814, 0.0110973222181, -0.21532407403,
   0.129835695028, -0.192760899663, -0.293643444777, 0.0849766284227,
   0.026356479153, -0.103778466582, 0.03862413764, -0.492260038853,
   -0.0608148835599, -0.325549900532, 0.0621049776673, 0.00747463246807,
   0.651089787483, -0.068442761898, 0.124800533056, -0.470550358295,
   -0.0277888011187, -0.136294469237, -0.0325011126697, 0.0398449860513,
   -0.20378190279, 0.0319747179747, 0.362511754036, 0.22097492218,
   -0.299204289913, -0.406581550837, -0.606724560261, -0.0753371343017,
   0.325772821903, 0.0907571315765, 0.0875673368573, 0.237051323056,
   0.34893065691, 0.0308550205082, -0.292560279369, 0.186130151153,
   -0.203266710043, -0.112131014466, -0.115328893065, -0.409660935402,
   0.19503724575, 0.0572599358857, -0.701371490955, 0.135564148426,
   -0.162108659744, 0.162524342537, -0.0171052478254, -0.130272760987,
   -0.527066290379, 0.0562392696738, 0.272880315781, 0.0857456624508,
   0.110509753227, -0.00547577254474, -0.0896186009049, 0.0950457900763,
   -0.299978852272, -0.593241691589, -0.00193967251107, 0.119535759091,
   -0.215890184045, -0.142495438457, -0.24386498332, 0.123126722872,
   -0.757464289665, -0.322902083397, -0.28183400631, 0.265890151262,
   0.238130226731, 0.174904704094, -0.177749186754, 0.151148855686,
   -0.145844653249, 0.555448114872, -0.0716235339642, -0.14829146862,
   -0.291563153267, 0.513022720814, 0.12826231122, 0.136414915323,
   -0.227123126388, 0.428856432438, -0.0433028973639, 0.218167871237,
   0.382418096066, -0.0568266659975, 0.543816268444, 0.219013914466,
   -0.020402662456, -0.393596321344, 0.420107245445, 0.177987098694,
   -1.13686943054, 0.0505432747304, -0.508479952812, -0.106467679143,
   0.314228445292, -0.415128022432, -0.689383804798, -0.105061300099,
   0.343852221966, 0.160252168775, 0.0233892016113, 0.296728312969,
   0.0357502549887, -0.21209064126, 0.0432444550097, -0.397597700357,
   0.180000409484, 0.330967307091, -0.12092012167, -0.337805092335,
   0.342533916235, 0.0256794150919, 0.117707274854, 0.154884085059,
   0.27315568924, -0.0469960123301, 0.109989859164, -0.146654695272,
   0.144295498729, -0.50210416317, 0.105060450733, -0.18620313704,
   -0.763689339161, -0.00145602214616, -0.00751351332292, 0.178876712918,
   0.126230716705, 0.0725757926702, -0.100917376578, -0.103645913303,
   0.123516000807, -0.157416000962, -0.292486727238, -0.327682375908,
   -0.061381496489, 0.301850825548, -0.177824378014, 0.186570763588,
   -0.265177488327, 0.334746330976, -0.118696421385, -0.237960547209,
   -0.495550662279, -0.374296009541, -0.0500339567661, -0.0950372368097,
   -0.072477504611, 0.0455176122487, 0.222554221749, 0.0240302197635,
   -0.0758375227451, -0.0232594497502, -0.381402730942, -0.588572263718,
   -0.253102242947, 0.0428977683187, -0.136062353849, 0.298119723797,
   -0.00531458249316, 0.0210039187223, -0.0159305538982, -0.148392900825,
   0.106812775135, 0.0114770587534, 0.549515247345, 0.144729807973,
   0.122993163764, 0.0851706713438, 0.042858492583, 0.0194813553244,
   -0.0617620386183, -0.146745473146, 0.153187021613, -0.172187790275,
   0.227556109428, -0.290560543537, -0.0405822433531, -0.00511386105791,
   0.00229902355932, 0.185619756579, -0.283034235239, 0.0774168372154,
   0.450518995523, 0.0182815790176, -0.158738970757, 0.246323302388,
   0.335037171841, 0.225192472339, 0.016821578145, 0.136891439557,
   -0.0525274798274, 0.366762161255, 0.0578993484378, 0.16469219327,
   -0.181122556329, -0.400484532118, 0.281801700592, 0.214569166303,
   0.26926317811, 0.183835655451, -0.0325384736061, -0.022821193561,
   0.302540332079, 0.782137751579, -0.20845605433, -0.24345587194,
   0.0904915779829, 0.274139940739, -0.413534462452, -0.0673360675573,
   0.0291226040572, -0.0682465136051, 0.0158963538706, 0.104237288237,
   0.345653384924, -0.056522808969, 0.0371252819896, 0.653166532516,
   -0.172990396619, -0.135865673423, -0.000602293410338, -0.217498734593,
   0.0187969021499, 0.160397589207, 0.172175064683, 0.0346321687102,
   0.222818434238, -0.0467312447727, 0.082898773253, -0.269612282515,
   -0.115442663431, -0.235936582088, -0.158699482679, 0.101338230073,
   0.106978408992, 0.160306438804, 0.162166520953, 0.184056118131,
   -0.036762740463, 0.486500531435, -0.333334326744, 0.0851140245795,
   -0.308489143848, -0.244365438819, -0.10185199976, -0.0287486817688,
   0.319667935371, 0.268708258867, -0.226668775082, -0.0744503214955,
   -0.116068713367, 0.205676659942, -0.172516822815, -0.603502392769,
   0.180555224419, 0.266590327024, -0.570320904255, 0.0209457948804,
   0.00470881164074, 0.261039495468, 0.0252077188343, -0.0621767230332,
   0.00025161539088, -0.0443803481758, -0.41111177206, 0.749188363552,
   0.0589363984764, 0.602510988712, -0.908077061176, -0.570087075233,
   -0.148223921657, -0.397880882025, 0.309770822525, -0.720745027065,
   -0.0202663764358, -0.453360527754, -0.0962392017245, 0.176420524716,
   0.763647258282, 0.110875569284, 0.114822246134, 0.852156341076,
   -0.0723583251238, 0.135968789458, 0.266875118017, -0.270701169968,
   -0.0425324440002, -0.305367439985, 0.239375829697, 0.14424970746,
   -0.0905672237277, 0.0290668793023, 0.11299841851, 0.112334400415,
   -0.257689893246, 0.0631136894226, 0.269759774208, 0.0233183093369,
   -0.41288369894, -1.19749438763, -1.65982949734, -0.8765655756,
   2.96612882614, -0.732636809349, 1.00809407234, 2.59142589569,
   1.83980703354, -2.32626199722, -0.441091746092, 1.81051647663,
   -1.83363211155, 1.46682178974, -0.392999261618, -1.38912498951,
   -0.23726478219, 0.510211527348, -0.76263821125, -0.428299695253,
   1.12962770462, -0.0755193680525, 0.749526202679, 0.177088752389,
   0.636701107025, -0.966028809547, -0.141347303987, 0.702739596367,
   -0.244973123074, 1.05007362366, -0.387785464525, -0.0552292317152,
   0.447204709053, -0.363616704941, -1.47877335548, 0.12435773015,
   -0.314213633537, -0.32343056798, 0.338576674461, -0.827347755432,
   -0.100162506104, 0.016661984846, -0.209614440799, 0.0812312215567,
   0.882901549339, -0.187487006187, -0.103931501508, 0.0529485531151,
   0.253255933523, -1.74051558971, 2.87641739845, 1.79007172585,
   -1.91373348236, 1.52130031586, -0.352036714554, -1.02663099766,
   -1.46435296535, 1.88992404938, 0.873190820217, -0.0343743525445,
   0.647413730621, -1.14796471596, 1.51418185234, -1.96013760567,
   0.146282657981, -0.0154709601775, -0.882797241211, 0.320272415876,
   0.178585425019, 0.769358098507, 1.16910552979, 0.365986555815,
   -1.50433754921, 0.567861378193, -0.584046065807, -0.471268117428,
   -0.0769169181585, -0.827209532261, 0.615273833275, 0.392092436552
};

static const float layer0_bias[16] = {
   -0.152136191726, -0.604014873505, 0.0090687032789, -0.022156637162,
   0.160404965281, 0.124743051827, -0.118187360466, 0.24666967988,
   -0.0522378981113, 0.0059084482491, -0.00928152631968, -0.441116303205,
   -0.558172106743, 0.0322309881449, -0.0409309975803, -0.458150804043
};

static const float layer1_weights[576] = {
   -0.135645568371, -0.153114289045, 0.219422146678, -0.317640542984,
   0.445662230253, 1.13543093204, 0.66016972065, 0.238779991865,
   0.180367007852, 0.281224310398, -0.117560841143, 0.0390966050327,
   0.334246307611, 0.310426205397, -0.244758620858, -0.132466211915,
   -0.0139026520774, -0.191823631525, 0.599398374557, 0.130364984274,
   0.509190917015, 0.282393366098, 0.195987865329, 0.0894717872143,
   -0.318580806255, -0.361157804728, 0.279599905014, -0.0643357783556,
   -0.224854364991, -0.0788002163172, -0.0020057503134, 0.244791910052,
   0.034556183964, -0.131448343396, -0.230797663331, -0.0159441214055,
   0.487315803766, -0.456072896719, -1.34382224083, 0.115442790091,
   -0.107300460339, -0.365206718445, -0.0888287946582, 0.209245279431,
   -0.158511593938, -0.836006700993, -0.963061690331, 0.00625403271988,
   0.404137253761, -0.537633597851, 0.410403460264, -0.193986311555,
   -0.13050827384, -0.0505261644721, 0.345816791058, 0.00626212311909,
   -0.44762429595, -0.162206441164, -0.054163005203, -0.371794611216,
   0.0857304260135, -0.219787076116, -0.187861934304, 0.310894846916,
   0.443390965462, 0.209585994482, -0.193544447422, -0.179282695055,
   -0.0838754102588, 0.270707696676, -0.0287565197796, 0.00602074060589,
   -0.0379426367581, 0.161926954985, -0.118543893099, -0.272169858217,
   0.372651904821, 0.26562589407, 0.344061583281, 0.013752005063,
   0.421154171228, -1.07588911057, -0.720577478409, 0.0756640434265,
   0.459498018026, -0.245083987713, -0.108578853309, 0.157136902213,
   0.0856798887253, 0.19243401289, 1.01179206371, 0.106908485293,
   -0.0227719154209, -0.109936453402, -0.0734463706613, 0.776721119881,
   0.0172082483768, -0.187776938081, 0.123053558171, -0.17079885304,
   0.323774665594, 0.285929143429, -0.0966208428144, -0.0280103068799,
   0.49006062746, -0.0413818582892, 0.292509198189, 0.287811428308,
   -0.727202177048, -0.367515295744, -1.2194031477, -0.0365717969835,
   -0.16007976234, 0.0941048040986, -0.0421861894429, -0.793741166592,
   0.0911750420928, 0.205159634352, -1.927983284, 0.829559206963,
   -0.130203470588, 0.453892916441, -0.357969492674, -0.395847827196,
   -0.34928432107, -0.186297371984, 0.427317470312, 0.24611119926,
   0.418431401253, 0.157782956958, 0.00315299024805, -0.397201538086,
   -0.106015756726, -0.100042261183, 0.266184508801, -0.133158996701,
   -0.0596751496196, -0.216435685754, 0.195115074515, -0.330059319735,
   0.33103248477, 0.0121005717665, 0.16122315824, 0.00878445710987,
   -0.285674840212, 0.641432464123, -0.758864760399, 0.361769795418,
   0.409666836262, -0.150092229247, -0.433160364628, -0.2496394068,
   -0.16503828764, 0.097002863884, 0.425550729036, -0.695216298103,
   -0.272261112928, -0.178436815739, -0.282963603735, -0.373446404934,
   -0.263423830271, 0.766186475754, 0.059953995049, -0.0662757530808,
   0.661511301994, -0.595463335514, -0.350849598646, -0.288786113262,
   0.11885843426, 0.205806523561, -0.188101649284, -0.199159443378,
   -0.304500639439, 0.25220656395, 0.334955513477, 0.191090896726,
   -0.575571835041, -0.279287129641, 0.0796670541167, 0.00951614510268,
   -0.205398276448, 0.653277873993, -0.0124468067661, 0.205404073,
   0.575732588768, -0.780673205853, -0.371829897165, -0.0767749473453,
   0.2032969594, 0.779318034649, -1.03111708164, 0.25229626894,
   -0.197298690677, 0.831957817078, 0.276602655649, -0.126413613558,
   -0.614935338497, 0.29701590538, -0.201481208205, 0.134251430631,
   -0.397877305746, 0.251957654953, 0.288172662258, -0.276442289352,
   0.161598294973, 0.352864861488, -0.0383349508047, -0.260931193829,
   -0.364775627851, 0.0623053200543, -0.338056445122, 0.251954644918,
   0.124101527035, 0.0480311326683, 0.215798035264, 0.177512854338,
   -0.990203440189, -0.6388707757, 0.648100316525, 0.237155437469,
   -0.635818243027, 0.890699148178, 0.478426963091, -0.849875986576,
   -0.341969996691, 0.379210293293, 0.0963242650032, 0.786545991898,
   0.166154578328, -0.155957341194, 0.141753286123, -0.604442358017,
   0.0557669177651, -0.0733618363738, -0.637820124626, -0.242206498981,
   -0.167072325945, 0.1580594033, 0.0232987366617, 0.107648715377,
   -0.0794544667006, 0.341203987598, 0.163495853543, 0.123789161444,
   0.0886314883828, -0.122752070427, 0.425149172544, 0.0353862456977,
   -0.170757815242, -0.152726367116, -0.351733356714, -0.16329857707,
   0.382798016071, -0.649722337723, 0.0772305577993, -0.661730885506,
   -0.767827868462, 0.484266519547, 0.46177855134, 0.562155008316,
   -0.324899047613, -0.0360014475882, -0.474531441927, -0.0557872988284,
   0.636326313019, 0.454191505909, 0.112778700888, -0.216040357947,
   -0.319310903549, 0.388865292072, -0.440310716629, 0.233280345798,
   0.015859015286, -0.371811419725, -0.887565493584, 0.14324221015,
   0.705964446068, 0.224984288216, 0.132411435246, 0.39615893364,
   -0.154165655375, 0.009541827254, -0.129333972931, -0.206415817142,
   -0.441898912191, -0.26027649641, -0.0255007147789, -0.0707963183522,
   0.147581338882, -0.336783438921, -0.473817139864, -0.711743950844,
   -0.223326385021, -0.112442664802, -0.650938570499, 0.156586289406,
   -0.389446109533, 0.286767631769, 0.210877180099, -0.702185988426,
   -0.90701931715, -0.757233679295, 0.207079872489, -0.00676610460505,
   0.265371471643, -0.269059836864, 0.0388020202518, 0.0841848030686,
   -0.344107717276, -0.52577573061, 0.170336008072, 0.841605007648,
   0.175951093435, -0.217253938317, 0.464881896973, 0.0694971829653,
   0.463569134474, 0.113308444619, 0.173587545753, -0.0413396395743,
   -0.15265417099, -0.157143220305, 0.252648025751, 0.351024746895,
   -0.117335014045, 0.122625991702, 0.89150094986, 0.00210254592821,
   -0.216439992189, 0.170495957136, 0.0389720872045, 0.469058990479,
   0.204778388143, 0.744554460049, 0.800765037537, 0.40150347352,
   0.227684244514, -0.07784897089, 0.0893199816346, -0.355299711227,
   0.48432123661, 0.0440327860415, 0.0515235513449, -0.132987722754,
   -0.181340694427, 0.854188859463, -0.225246220827, 0.327184796333,
   0.0357285402715, 0.545215129852, 0.0303787402809, 0.0777619332075,
   -0.179506570101, -0.142788812518, -0.598944783211, -0.0129470890388,
   0.566060185432, 0.0662110745907, -0.278120785952, 0.154121473432,
   -0.391215413809, -0.418296605349, -1.57721316814, -0.400047123432,
   -0.192453637719, -0.444821178913, -0.438579499722, 0.355676978827,
   0.449673622847, -0.0588703900576, -0.397964447737, -0.469036757946,
   -0.26677903533, 0.478294312954, -0.446102768183, -0.0205387268215,
   -0.158752918243, -0.136807844043, -0.0370264612138, 0.134480625391,
   -0.797067940235, -0.0199253000319, 0.230358123779, 0.280571013689,
   -0.00406012590975, -0.0372052006423, -0.0496493279934, -0.0696970075369,
   -0.110342726111, 0.290585875511, -0.167183101177, -0.0718596801162,
   0.0776421353221, 0.10386800766, -0.00269412947819, 0.184546738863,
   -1.10150969028, -0.656622290611, -0.0796637684107, -0.600304305553,
   -0.36623314023, -0.448594331741, 0.484986782074, -0.626976191998,
   0.761508762836, -0.421916514635, -0.129530340433, -0.118328787386,
   -0.0547856353223, -0.148916736245, -0.459822267294, -0.321519136429,
   -0.410278558731, -0.0923551991582, -0.403782039881, 0.795524477959,
   0.686704397202, -0.144433766603, -0.0918140634894, -0.382901906967,
   -0.0489098876715, 0.164039984345, 0.449385672808, -0.0337993912399,
   0.302458941936, 0.282559633255, 0.0962272658944, 0.3676841259,
   -0.0292868055403, 0.15717177093, 0.150707244873, 0.196105390787,
   0.103447929025, 0.00895854085684, 0.126637607813, -0.0599660687149,
   0.0499924980104, -0.390970647335, -0.161353304982, 0.356041043997,
   0.272589385509, 0.73021364212, -0.546072006226, -0.738568544388,
   -0.506231069565, 0.0149474292994, -0.00369304046035, -0.00539595261216,
   -0.00863142218441, -0.017618784681, -0.0683705508709, 0.22064602375,
   -0.432489573956, 0.143448919058, 0.257566064596, -0.303675532341,
   -0.240756586194, -0.140832737088, -0.206022664905, 0.271456182003,
   -0.177980899811, 0.259149104357, -0.114436343312, 0.2527577281,
   0.371281832457, -0.0220971014351, -0.450824588537, 0.215144172311,
   -0.495312958956, 0.0475281961262, 0.368060618639, 0.422393709421,
   -0.045260284096, -0.545728087425, -0.0978358387947, 0.847238004208,
   -0.139369428158, 0.111619889736, -0.182792007923, -0.665386915207,
   0.174143791199, 0.044360447675, -0.281372070312, 0.0875080525875,
   -0.012273048982, -0.273792892694, 0.0961207598448, 0.251853197813,
   0.255609631538, 0.214018389583, -0.588818609715, -0.0478543527424,
   0.0783759951591, -0.194653615355, 0.278831064701, -0.0433527715504,
   0.0882357731462, 0.085902556777, 0.539781630039, 0.029037958011,
   -0.195732653141, 0.568623900414, -0.0318498238921, -0.128090783954,
   -0.617390751839, 0.158893302083, 1.01739239693, 0.0365624688566,
   0.0224947761744, 0.291440546513, -0.56757748127, 0.112342782319,
   -0.127480015159, 0.503660619259, 0.278070539236, -0.197518274188,
   -0.194733455777, -0.478204488754, 0.371077120304, -0.193804770708,
   0.310653030872, -0.0676750168204, 0.537288606167, 0.147553026676,
   -0.1966971457, -0.571443855762, 0.171187952161, 0.0191300064325,
   -0.333758890629, 0.161435842514, 0.321422159672, -0.0108611471951,
   -0.259250104427, -0.460861295462, -0.131050899625, 0.286065280437,
   0.079767793417, -0.291408360004, -0.178605899215, 0.12523150444,
   0.139861851931, 0.296961307526, -0.121140576899, -0.0109013672918,
   0.0476139597595, -0.0737858712673, -0.496298581362, -0.410670012236,
   0.339290082455, 0.160717606544, -0.378856837749, -0.35953694582,
   0.520156562328, 1.01428365707, 0.399400085211, 0.381638556719,
   0.109514258802, 0.209051400423, -0.0164594650269, 0.0236354395747,
   -0.329076915979, 0.189728543162, -0.143866851926, -0.135173290968,
   -0.0763404220343, 0.0284977052361, -0.353855699301, 0.143406152725,
   0.0889732167125, 0.492492198944, 0.243105143309, -0.128981292248,
   -0.0883179083467, 0.13737437129, -0.483918607235, -0.156250789762
};

static const float layer1_recur_weights[432] = {
   -0.0534201823175, -0.102301552892, -0.755808949471, 0.660529315472,
   -0.0509884692729, 0.353165596724, 0.0346408784389, 0.206595793366,
   0.0883909016848, -0.817158818245, 0.0454401709139, 0.280010551214,
   -0.295382767916, -0.12035356462, -0.0220953151584, 0.374744743109,
   -0.403189569712, 0.208508640528, 0.294022500515, 0.553884088993,
   0.126330032945, -0.285820990801, 0.190295979381, 0.448792487383,
   0.845552384853, 0.00229004444554, 0.856746733189, -0.152095928788,
   -0.000724668963812, 0.0932978317142, 0.148429170251, 0.39671638608,
   -0.137965619564, -0.517491042614, 0.509806513786, -0.224773287773,
   -0.0443742386997, -1.35445702076, 0.198570385575, -0.685154378414,
   -0.709188044071, -0.274952560663, -0.402635872364, -0.584256410599,
   -0.155406460166, 0.136032253504, 0.576398253441, 0.517458379269,
   -0.195802643895, -0.103509567678, 0.0652424693108, -0.0576241835952,
   -0.447816997766, -0.258512616158, -0.337907552719, -0.180009439588,
   0.089253410697, 0.441637128592, 0.158839792013, 0.0319732055068,
   -0.229976862669, 0.453448653221, 0.343700617552, -0.0484459921718,
   -0.351992279291, -0.252590566874, -0.0466128997505, -0.0950158834457,
   -0.426537543535, -0.697771549225, 0.575547158718, 0.467134445906,
   -0.622476220131, 0.0316193141043, -1.1619079113, -0.452598899603,
   -0.0937659367919, 0.0732115805149, 0.784352779388, -0.478933036327,
   0.100138768554, 0.490589141846, 0.325177639723, 0.683962225914,
   -0.533712863922, 0.143033310771, -0.193942412734, 0.223480015993,
   -0.106735877693, -0.273613601923, 0.315334826708, 0.148583129048,
   -0.634664416313, -0.0674355179071, 0.317234307528, 0.715997338295,
   0.504210293293, 0.28173366189, 0.840022206306, -0.482747733593,
   0.402823984623, -0.0534907281399, 0.360483497381, 0.254621148109,
   -0.0044296681881, -0.717915654182, 0.520126760006, -0.0899048745632,
   -0.186571165919, -0.362270653248, 0.043588321656, -0.0986122786999,
   -0.520754635334, -0.707313120365, -0.312031179667, 0.533445835114,
   -0.411134123802, -0.755574584007, -0.966817080975, -0.430228501558,
   -0.418762147427, 0.281251102686, -0.0481546260417, 0.40539264679,
   0.440268158913, -0.107988290489, -0.569686591625, -0.592724084854,
   -0.872903764248, 0.201933979988, -0.165530130267, -0.299067020416,
   -0.372742593288, -0.333165556192, -0.739404559135, 0.438050359488,
   0.324658304453, 0.724041819572, 0.199269548059, -0.146449685097,
   -0.251655578613, 0.662623465061, -0.620094358921, -0.198321685195,
   0.491534084082, 0.0314573645592, -0.106285355985, 0.323890507221,
   0.788178563118, -0.485325336456, -0.222979053855, 0.403220564127,
   0.0263036824763, -1.10141396523, -0.851181149483, 0.0840225890279,
   0.137678623199, -0.0395403243601, 0.00158536725212, 0.361817359924,
   0.137239590287, 0.283651322126, 0.201133981347, 0.242327719927,
   -0.264248490334, -0.104890748858, -0.512986063957, 0.355014055967,
   -0.269398778677, 0.328169494867, 0.0382961034775, 0.654013633728,
   0.628359854221, 0.314847618341, -0.008933018893, 0.0302516110241,
   -0.151164740324, 0.309972375631, 0.0635191351175, -0.216817289591,
   0.464421153069, 0.0366244986653, -0.374229431152, 0.135110408068,
   -0.358331918716, 0.103744477034, 0.199830472469, 0.407337516546,
   -0.0496060661972, -1.05735099316, -1.45369839668, -0.149422481656,
   0.631644666195, 0.249800264835, 0.116542331874, -0.448331058025,
   -0.0171353276819, -0.201677814126, -0.200718477368, 0.347133934498,
   0.334647536278, 0.0641435161233, -0.55914080143, -0.250352263451,
   0.291622430086, 0.0203267931938, -0.381194978952, -0.514792203903,
   -0.420018792152, 0.496955871582, 0.233933314681, 0.843290090561,
   -0.171423181891, -0.114513471723, -0.238830417395, -0.466458946466,
   -0.437411606312, -0.202769637108, -1.17792522907, -0.573091983795,
   -0.323121905327, 0.430756658316, -0.12820777297, -0.169650360942,
   -0.114913612604, -1.09278297424, -1.04333233833, -0.626369297504,
   0.192198738456, 0.36839389801, -0.164414152503, -0.420057624578,
   0.343950837851, 0.22913569212, 0.112566553056, 0.0247860513628,
   0.188868746161, -0.310101956129, -0.325837045908, -0.435604959726,
   0.453156262636, -0.226777777076, 0.196278437972, 0.490946292877,
   0.237877219915, 0.155021354556, 0.694605112076, 0.604483544827,
   -0.356947690248, -0.226055085659, -0.117174901068, -0.804680466652,
   0.50195646286, -0.590263545513, -0.777065336704, 0.115594707429,
   0.201796576381, 0.471950948238, -0.432503461838, 0.0517507120967,
   -0.123429752886, -0.579337179661, 0.0588441677392, -0.648763954639,
   -0.157588914037, -0.267737567425, 0.126194909215, -0.270536065102,
   -0.204593524337, 0.329653799534, 0.104231052101, 0.307512819767,
   0.147366940975, -0.523848295212, -0.28729146719, -0.0875377729535,
   0.378740489483, -0.066693328321, 0.149348735809, -0.576244115829,
   -0.0286954119802, -0.0877425521612, 0.351765632629, 0.264146864414,
   0.105733349919, -0.212464109063, -0.15320122242, -0.362434118986,
   0.581636548042, -0.35093921423, -0.515153586864, -0.418688803911,
   -0.594480335712, -0.59308719635, -0.290797621012, -0.464853852987,
   -0.139741927385, 0.185867518187, -0.816410422325, 0.173692747951,
   0.0404076129198, 0.100634880364, -0.392241746187, 0.26927781105,
   0.143613234162, -0.80989331007, 0.177260011435, -0.437097251415,
   -0.606478154659, 0.41151279211, 0.814235091209, 0.0583423599601,
   -0.109410628676, -0.236269816756, -0.420597493649, 0.469333738089,
   -0.310319185257, -0.110636152327, -0.430742710829, -0.588460445404,
   0.851990520954, 0.545346438885, -0.287267357111, 0.485583424568,
   0.108093857765, -0.145870149136, -0.479981392622, 0.473871260881,
   0.344892323017, -0.265394032001, -0.484151035547, 1.01823580265,
   0.521807491779, 1.03086948395, -0.443242132664, -0.299225538969,
   0.508755207062, -0.014919070527, -0.190130740404, -0.239378795028,
   0.212325185537, -0.318359315395, -0.146286487579, -0.124682582915,
   -0.368096321821, 0.262281864882, -0.48794823885, -0.17342223227,
   -0.666421294212, -0.00402362784371, -0.51308631897, 0.40624627471,
   0.00146040646359, 0.392981857061, 0.408272504807, 0.16224180162,
   0.390257388353, 0.593107402325, -0.365946948528, 0.143621757627,
   -0.282090187073, 0.565088510513, -0.610865712166, 0.0626381188631,
   0.579041898251, 0.649766623974, 0.999305129051, -0.0328760035336,
   0.624236524105, -1.08526134491, -0.239746823907, 0.974329769611,
   -0.0486675053835, -0.126658216119, -0.20812240243, 0.0948663800955,
   -0.0397624261677, -0.192648082972, 0.392461687326, 0.24689540267,
   -0.146638393402, 0.145074993372, -0.226055547595, 0.394790589809,
   0.133133605123, 0.216875836253, 0.461616635323, -0.222193315625,
   -0.359111249447, -0.11644590646, -0.111108765006, -0.196014449,
   0.30139836669, -0.404330462217, 0.394920229912, 0.310160219669,
   -0.295704007149, -0.25131586194, 0.0862559527159, -0.123952522874,
   -0.913034021854, -0.313611239195, -0.525275588036, -0.751106321812,
   -0.471650332212, 1.00885987282, 0.230799585581, 0.254728376865,
   -0.137634113431, 0.141036763787, -0.258604586124, -0.442022383213,
   -0.41969960928, 0.14637221396, 0.13069909811, -0.178312674165,
   -0.335013210773, 0.322020441294, 0.382196724415, 0.0632404461503,
   -0.0529995523393, 0.875956356525, -0.258177399635, -0.0643738731742,
   -0.232318907976, -0.202871829271, -0.342398107052, -0.716666936874,
   0.282518088818, -0.27396979928, 0.344115078449, 0.948206067085
};

static const float layer1_bias[36] = {
   0.425312370062, 0.205866336823, 1.05186665058, 0.466390311718,
   0.337836742401, 0.555207967758, 0.696479320526, 0.65521967411,
   0.243835449219, 0.977379918098, 0.562156319618, 1.02750635147,
   0.372824221849, 0.175316751003, 0.528181493282, 0.325578212738,
   0.111421905458, 0.52512127161, 0.182665303349, 0.220756754279,
   0.107729367912, 0.11251552403, -0.0506886094809, 0.539487600327,
   0.141097262502, -0.248613193631, 0.167640328407, -0.132247671485,
   0.0393877178431, 0.21063952148, -0.0815617516637, -0.00716851837933,
   -0.105673439801, -0.000398494885303, -0.0807703584433, -0.299786001444
};

static const float layer2_weights[24] = {
   1.29031777382, 0.0604117251933, -0.751553118229, -2.46779036522,
   1.04941105843, -0.485469788313, -2.82465338707, 0.646382570267,
   -0.353170067072, 2.28265976906, 0.12175347656, 1.05299437046,
   0.354237318039, 0.052951708436, -0.227741658688, 1.16401600838,
   -0.101358041167, -1.8404083252, -1.4229041338, 0.377245366573,
   2.23772096634, 0.508485496044, -0.527350187302, -1.11361968517
};

static const float layer2_bias[2] = {
   -0.186226934195, 0.960487127304
};

const DenseLayer layer0 = {
   layer0_bias,
   layer0_weights,
   25, 16, 0
};

const GRULayer layer1 = {
   layer1_bias,
   layer1_weights,
   layer1_recur_weights,
   16, 12
};

const DenseLayer layer2 = {
   layer2_bias,
   layer2_weights,
   12, 2, 1
};

